1488 128
12464791 -0.0288363 -0.0265331 0.0466392 -0.00228321 0.0010432 0.0208029 0.0217405 0.0199871 -0.0387617 0.0184772 0.0284745 0.00360614 0.00263862 0.0405502 -0.0286239 -0.0353385 -0.0122812 0.00714566 -0.0130487 -0.0111797 0.0179848 -0.00372397 0.00148775 0.0352888 -0.00884674 0.00692939 -0.0226843 0.012685 0.0389519 0.042883 -0.0245343 0.00453804 0.00678683 -0.00571412 0.03095 -0.0144622 0.0128413 0.0195304 0.0188078 -0.0299951 0.0300562 -0.00999272 0.0273431 -0.0181584 0.00923896 0.00307062 0.00496871 -0.0273015 -0.0266568 -0.00238004 0.0128349 -0.00197188 -0.00241847 0.00323196 -0.00687566 0.00888078 -0.0192905 -0.0222881 0.0195359 0.00536059 -0.0198054 0.0160329 -0.0328333 0.0167812 0.0120625 -0.00318049 -0.0208535 -0.0272373 -0.0270861 0.0105339 0.0133982 0.0306472 -0.0245244 0.0198891 0.0208461 -0.00895963 0.00217173 -0.00327492 0.00785682 -0.0154542 -0.0206741 -0.000868484 0.00168478 0.0329216 -0.0139701 -0.0145054 -0.020695 0.00796334 -0.00921595 -0.0233367 0.0161031 0.0193941 -0.0227982 0.0214826 0.0230111 -0.0378058 -0.0100018 -0.0265518 -0.0194863 -0.00890704 0.0265402 0.0129908 0.0186719 -0.0173177 0.00660392 -0.0425382 -0.00272929 0.0325396 -0.0318607 -0.0140214 0.012115 -0.0150371 0.0239594 0.0216036 -0.0179826 -0.00629556 -0.0125966 0.0113919 -0.0032017 0.00705067 0.0234612 0.0155567 0.00152631 -0.00150126 0.0052175 -0.0128278 0.00247781 -0.00583448
7877579 -0.0291101 -0.0300754 0.0424886 0.00461001 -0.00285585 0.0268596 0.016914 0.0182292 -0.0379725 0.0180485 0.0251707 0.00729153 0.0040465 0.0480348 -0.0274269 -0.034585 -0.0188864 0.0124516 -0.00997773 -0.00806377 0.0191789 -0.0013419 0.00719173 0.0370293 -0.00824579 0.012539 -0.0201348 0.00858436 0.0413867 0.0426959 -0.0260619 0.00259761 0.00302251 -0.00518175 0.036598 -0.0185799 0.0120863 0.0262135 0.0189233 -0.0280373 0.0345253 -0.00960103 0.0302551 -0.0180315 0.00614016 0.00442958 0.00353491 -0.0284235 -0.0285672 -0.00695461 0.0105004 -0.00356861 -0.00118126 0.00675476 -0.0024225 0.00712935 -0.0206219 -0.0223197 0.0195656 0.00896752 -0.0214364 0.0132272 -0.028319 0.0224149 0.00897721 0.00226677 -0.0155158 -0.0237902 -0.028129 0.0102407 0.0130616 0.0365812 -0.0263856 0.0212127 0.0276923 -0.0117681 -0.0029869 -0.00744224 0.00581104 -0.0206645 -0.024832 -0.000325657 0.000801835 0.0397226 -0.0190607 -0.010587 -0.0195911 0.0115055 -0.00910254 -0.0277925 0.017921 0.0219863 -0.0224172 0.020709 0.0251005 -0.0426945 -0.0097751 -0.0228437 -0.0222141 -0.00673237 0.0318118 0.0126467 0.0186327 -0.0193049 0.00701457 -0.0462037 -0.00158413 0.0327042 -0.0334982 -0.011506 0.00839859 -0.0154245 0.0245694 0.0296227 -0.0233742 -0.0100648 -0.0112666 0.0132075 -0.00834929 0.00207336 0.0225907 0.019409 -0.00131088 -0.00248903 0.00330035 -0.0118986 0.00566798 -0.00831689
8805341 -0.066812 -0.0589043 0.0905386 -0.00260401 0.00195987 0.0500757 0.0424254 0.0455156 -0.0835812 0.032446 0.0573705 0.00780101 0.0199041 0.0950156 -0.0530047 -0.0713149 -0.025639 0.0280357 -0.0215539 -0.0149897 0.0384928 -0.000826513 0.00738477 0.0697315 -0.0111875 0.0167843 -0.0435597 0.0146872 0.0732544 0.0902089 -0.0566003 0.0105114 0.0181653 -0.0130846 0.0692477 -0.0260297 0.0274371 0.0492356 0.0335773 -0.0629091 0.0699515 -0.0200031 0.060884 -0.0441321 0.0110822 -0.00457584 -0.000103479 -0.0607757 -0.0607443 -0.0100228 0.0240923 -0.00190379 -0.000644656 0.0162751 -0.00203781 0.0192708 -0.0379256 -0.0396631 0.0352432 0.0156553 -0.0443882 0.0306498 -0.0596959 0.0515386 0.0239861 -0.00528731 -0.0424934 -0.0579544 -0.0653243 0.0167113 0.0191979 0.0821084 -0.0562445 0.044324 0.0563966 -0.0249441 -0.00146678 -0.00997704 0.0131161 -0.0362291 -0.0496465 -0.00219578 -0.00311248 0.0793121 -0.0449079 -0.030537 -0.0352031 0.0105689 -0.0220991 -0.0532223 0.0329555 0.0397956 -0.0437261 0.0553981 0.0537613 -0.0807855 -0.0238946 -0.0571143 -0.0395442 -0.0153197 0.0597818 0.0208658 0.0390257 -0.0438505 0.0163824 -0.0889859 -0.0056131 0.0765206 -0.0668352 -0.0211434 0.0305012 -0.0276215 0.052046 0.0461643 -0.0502853 -0.0244418 -0.0203784 0.0316097 -0.0133501 0.0150006 0.0454274 0.0352911 0.00437159 -0.0037307 0.0068106 -0.01845 0.00652702 -0.0217283
2041025 -0.0232883 -0.0194462 0.0287769 -0.000432958 -0.00341892 0.0200534 0.0158875 0.0142479 -0.0257499 0.0139813 0.0237946 0.00477118 0.00719829 0.0321247 -0.0168701 -0.0255598 -0.011647 0.0104663 -0.0060682 -0.00297077 0.01481 0.00308729 0.00331001 0.0241901 -0.001326 0.00608788 -0.0190718 0.00938135 0.0237468 0.0318788 -0.0230277 0.00321305 0.00777572 -0.00517133 0.0278228 -0.00868517 0.00859208 0.02053 0.00925851 -0.0211419 0.0270336 -0.00482625 0.0238764 -0.018502 0.00289753 -0.000360585 7.98844e-05 -0.0229051 -0.0205475 -0.00720994 0.0115394 -0.00155631 0.00279227 0.00646557 0.00215191 0.00431563 -0.0129239 -0.0127241 0.0143775 0.00242843 -0.0136695 0.0112196 -0.0242579 0.020793 0.010188 -0.000317688 -0.0172474 -0.0197282 -0.0264041 0.00629804 0.00907527 0.028579 -0.0214717 0.0192195 0.0159133 -0.00791522 -0.00211679 -0.0044311 0.00707896 -0.00993951 -0.0189213 -0.00201752 -0.00466066 0.0311621 -0.0164247 -0.010537 -0.00829061 0.0066231 -0.00590479 -0.0139536 0.00902515 0.012139 -0.0194043 0.0201081 0.0195698 -0.032639 -0.0070148 -0.0225847 -0.0125592 -0.00738928 0.0193492 0.00692923 0.010068 -0.0116373 0.00930085 -0.0265274 -0.00430402 0.0290641 -0.023196 -0.0105568 0.0122951 -0.010386 0.0205489 0.0169492 -0.0196843 -0.0119266 -0.00951718 0.00985325 -0.00540203 0.00806003 0.016472 0.00902194 0.00239445 -0.00435782 0.0020323 -0.0102237 0.00565686 -0.00562041
5596418 -0.119218 -0.126542 0.192767 0.00588663 -0.00442763 0.0996679 0.0871308 0.0946567 -0.167303 0.0642551 0.110821 0.022227 0.0291004 0.184504 -0.120378 -0.147087 -0.0601674 0.043433 -0.0492654 -0.0396023 0.0763485 0.000867707 0.0153439 0.154839 -0.0299457 0.0414711 -0.0953757 0.0461784 0.154529 0.186884 -0.110316 0.0136899 0.0258936 -0.0286175 0.155305 -0.0605816 0.056188 0.104816 0.0762455 -0.123755 0.144825 -0.0440425 0.116761 -0.0780507 0.0323311 0.00139755 0.00190994 -0.121877 -0.133084 -0.0247297 0.0573452 -0.00428776 -0.00289993 0.0303397 -0.0138162 0.0384875 -0.0788985 -0.082929 0.0679698 0.029842 -0.0971219 0.0662287 -0.129744 0.0947706 0.0473294 -0.00420337 -0.0777958 -0.113539 -0.133753 0.0363041 0.045544 0.157298 -0.114513 0.0823997 0.109794 -0.0490188 -0.00294641 -0.0158171 0.0358256 -0.0738592 -0.111192 -0.000356083 -0.00423355 0.161968 -0.0810408 -0.0621107 -0.0721621 0.0348014 -0.039744 -0.104551 0.0630963 0.0929804 -0.0859315 0.101823 0.113694 -0.168029 -0.0590324 -0.113372 -0.084321 -0.0317022 0.121171 0.0516619 0.0747218 -0.0876997 0.0390051 -0.181825 -0.0155757 0.146453 -0.136049 -0.0477776 0.0506413 -0.054631 0.112266 0.103636 -0.0986867 -0.0419815 -0.0491656 0.0653637 -0.0304556 0.0281344 0.0889705 0.0730282 0.00627272 -0.012471 0.0177083 -0.0512242 0.0200768 -0.0328968
1430148 -0.105504 -0.110182 0.171516 0.00190962 -0.00121977 0.0875656 0.0751258 0.081419 -0.147585 0.0600579 0.0989175 0.0147185 0.0228837 0.162769 -0.109024 -0.130139 -0.0578555 0.0373132 -0.0444819 -0.0391427 0.0708021 -0.000247096 0.0148311 0.135862 -0.0206281 0.0386066 -0.0853426 0.0360695 0.141674 0.168902 -0.102539 0.0126814 0.0196854 -0.0290901 0.137451 -0.0577553 0.0446683 0.0898846 0.0687995 -0.100326 0.123024 -0.0471907 0.105042 -0.0702598 0.0348527 0.00408649 0.00818741 -0.10161 -0.116185 -0.0163936 0.0473068 -0.00163627 0.00081736 0.0215287 -0.018076 0.032301 -0.0728706 -0.0718075 0.0609237 0.032929 -0.0788315 0.0648762 -0.114658 0.0786219 0.0421068 -0.00447072 -0.0720511 -0.104361 -0.118708 0.032767 0.040006 0.135802 -0.107651 0.0667842 0.0932557 -0.0456375 -0.00725793 -0.021193 0.0289084 -0.0676815 -0.0986712 -0.00147442 -0.00602348 0.138482 -0.0677266 -0.0543779 -0.0689082 0.0272655 -0.0390983 -0.0980176 0.0639156 0.0830139 -0.0749999 0.0866348 0.0984242 -0.147953 -0.0517422 -0.0964436 -0.0716569 -0.0266338 0.111674 0.0424294 0.0687528 -0.081231 0.0343811 -0.161243 -0.0144642 0.128502 -0.118884 -0.0458579 0.0416697 -0.0521151 0.0981072 0.0950521 -0.0804841 -0.0352725 -0.043376 0.0552666 -0.0304744 0.0224463 0.0829215 0.0619977 0.0113252 -0.0126769 0.0119057 -0.0467976 0.0219346 -0.0294959
5887258 -0.0216604 -0.0155943 0.0312754 -0.00202316 0.00347261 0.0160959 0.0135906 0.0125937 -0.0253972 0.0127458 0.0183245 0.00392557 0.00495189 0.029279 -0.0180019 -0.0207733 -0.00555632 0.0100674 -0.00475508 -0.00890866 0.0114548 0.00260059 0.000739175 0.0247043 -0.00278513 0.00256044 -0.0104338 0.00239615 0.0217117 0.0307929 -0.0210915 -0.000577896 0.00525462 -0.00791197 0.0242861 -0.00696937 0.0108784 0.0177046 0.00926787 -0.0187604 0.0199262 -0.00756067 0.0167255 -0.0120108 0.00696721 -0.00238161 0.00216992 -0.0168451 -0.0225249 -0.00154854 0.00551239 -0.00176174 0.00133237 0.00541778 -0.00414606 0.00895724 -0.00959154 -0.0146077 0.0075094 0.00309086 -0.0131361 0.0076369 -0.0177376 0.0162998 0.00968289 -0.00384455 -0.00968103 -0.0150727 -0.0233621 0.00304614 0.00901547 0.0211991 -0.0198257 0.0148814 0.020526 -0.00653601 0.0025518 -0.000415247 0.00786706 -0.00993137 -0.0180358 -0.00217698 -0.00132668 0.0218806 -0.013352 -0.0103305 -0.012978 0.00346988 -0.00410789 -0.0165129 0.0105301 0.0147258 -0.0129634 0.015841 0.0164868 -0.0290712 -0.0116479 -0.0154904 -0.0109654 -0.00369247 0.0149995 0.0108178 0.011972 -0.0105975 0.00281102 -0.0253157 -0.000779156 0.025371 -0.0222561 -0.00355757 0.00806414 -0.00699488 0.0127713 0.018979 -0.0117787 -0.00353211 -0.00896785 0.00942254 -0.0030436 0.00389093 0.0139415 0.0139397 0.00317335 -0.00510752 0.000403223 -0.00958633 0.00144029 -0.00285516
1816630 -0.0254877 -0.0259871 0.0371643 0.00378618 -0.00386504 0.017417 0.0174897 0.0152779 -0.0367668 0.0136429 0.0205713 0.00654936 0.0057389 0.0410265 -0.0236005 -0.0281425 -0.014398 0.00763593 -0.0105564 -0.00699151 0.0183551 -0.0016752 0.00441409 0.0338614 -0.0047923 0.00520059 -0.018067 0.00689972 0.0285235 0.0360147 -0.0201311 0.00566557 0.00327299 -0.00832973 0.0298986 -0.0108636 0.013866 0.0217828 0.0130767 -0.0233243 0.0258919 -0.00706555 0.0268203 -0.0140414 0.00503302 -0.000421444 -0.00404386 -0.0257194 -0.0250759 -0.00280672 0.00793324 -0.00402746 -0.00164208 0.00816983 -0.00115467 0.0119069 -0.0181541 -0.0159267 0.0135791 0.00571328 -0.0183949 0.00879194 -0.0286316 0.0203364 0.0133861 0.00277166 -0.0165763 -0.0255564 -0.0269561 0.00997888 0.00653799 0.0324097 -0.0189057 0.0164934 0.0188868 -0.0127483 -0.000847532 -0.000659734 0.00918577 -0.015951 -0.0196649 0.00163408 0.000448233 0.0350496 -0.015979 -0.0128248 -0.0170161 0.00185178 -0.0112869 -0.0183656 0.0117954 0.0175053 -0.0180444 0.024486 0.0188838 -0.0340228 -0.0117166 -0.0261452 -0.0177215 -0.0053346 0.024012 0.00589028 0.015784 -0.0200068 0.00849578 -0.0323132 -0.00386424 0.0297852 -0.0286636 -0.0105243 0.0120992 -0.0135337 0.0221253 0.0188441 -0.0187938 -0.00618567 -0.00583586 0.00918298 -0.00844645 0.00659493 0.0181386 0.0103927 -0.00160656 0.000762652 0.00426527 -0.00760358 0.00315211 -0.0102859
1535450 -0.0690955 -0.0692532 0.116487 0.00263605 0.00161473 0.0551098 0.0527631 0.0575898 -0.100408 0.0371573 0.0679677 0.0132718 0.0132665 0.112934 -0.071006 -0.0861739 -0.0336283 0.0255504 -0.0311129 -0.02606 0.0467712 -0.00482828 0.00735465 0.0929419 -0.0158306 0.0284436 -0.0529664 0.028834 0.094478 0.114581 -0.0648718 0.00607477 0.0184693 -0.0140977 0.0930685 -0.0357041 0.0348963 0.0563406 0.0463422 -0.0748361 0.0880703 -0.0258809 0.0695201 -0.0453315 0.0216515 0.00128964 0.00540101 -0.0715672 -0.0802142 -0.0158817 0.0358454 -0.00382136 0.000590946 0.014197 -0.0114698 0.0188568 -0.0498178 -0.0466052 0.0397199 0.0151335 -0.0579164 0.0374578 -0.0752475 0.0513391 0.0314636 0.000960999 -0.0494218 -0.0658839 -0.0795818 0.0233491 0.0290346 0.0887298 -0.0721929 0.0440514 0.0604301 -0.0342317 -0.000253323 -0.0087982 0.021774 -0.0444656 -0.0623597 -0.00254738 -0.00381367 0.0981209 -0.0496887 -0.0382873 -0.0446893 0.017093 -0.0256753 -0.061495 0.0426322 0.057752 -0.0553283 0.055784 0.0671169 -0.0984365 -0.029794 -0.0694766 -0.0480929 -0.0155008 0.0738337 0.0302478 0.0486142 -0.0566929 0.0277667 -0.103119 -0.0104787 0.0914805 -0.0842554 -0.0286418 0.0310418 -0.0382658 0.0677159 0.0659545 -0.0599118 -0.0262168 -0.0282348 0.039961 -0.0170796 0.0146246 0.0542146 0.0401899 0.00337472 -0.00611303 0.00960663 -0.0299907 0.012855 -0.0168677
11842663 -0.0212864 -0.0226732 0.0305223 0.00171796 0.000784489 0.0159006 0.0156309 0.0117248 -0.0270027 0.0099793 0.0171681 0.00442533 0.00475936 0.028332 -0.0224974 -0.0261353 -0.00938809 0.00935634 -0.00816865 -0.00875258 0.0101236 -0.00369336 0.00760846 0.0292458 -0.00529022 0.00893875 -0.0133478 0.00712051 0.0309042 0.0344124 -0.0202327 0.0019154 0.00418666 -0.00174169 0.0264378 -0.00845894 0.0120869 0.0193178 0.0119117 -0.019411 0.0283041 -0.00696613 0.0214122 -0.00945083 0.00719284 0.00469327 0.00151604 -0.0219129 -0.0261589 -0.0062462 0.0070016 0.00209984 0.000205915 -0.000691414 -0.0067611 0.00490558 -0.015469 -0.010994 0.0100879 0.0100378 -0.0161271 0.0148807 -0.0199856 0.0154495 0.00613223 0.00372503 -0.0147353 -0.021742 -0.0198112 0.00490962 0.0107374 0.0215448 -0.0228351 0.00834793 0.0143553 -0.0058118 -0.000120229 -0.00415907 0.0075508 -0.0158554 -0.0159543 0.000906435 -0.000506154 0.0284153 -0.00980086 -0.00567602 -0.0163337 0.00348599 -0.0112274 -0.01981 0.0147225 0.0144628 -0.013236 0.0179395 0.0218472 -0.0310085 -0.00667719 -0.0187784 -0.0130509 -0.00819835 0.0240649 0.00659882 0.0114715 -0.0125527 0.00585964 -0.03157 -0.00377685 0.0255415 -0.022601 -0.00827825 0.0048451 -0.0071975 0.0221135 0.0185124 -0.0165818 -0.00435014 -0.00579127 0.0140092 -0.00378753 0.00575724 0.0153892 0.0140415 -0.00041289 -0.00338681 0.00534705 -0.00847324 0.00612845 -0.00785893
4857398 -0.102936 -0.102327 0.167394 0.00094862 -0.00373727 0.0822774 0.0689881 0.0791719 -0.139344 0.0553895 0.0970688 0.016811 0.0274079 0.159538 -0.102162 -0.121088 -0.0527833 0.0404647 -0.0422925 -0.0331237 0.0667408 -0.00121074 0.0088002 0.132885 -0.0246263 0.0379026 -0.0803041 0.0303111 0.136147 0.157798 -0.0964811 0.0106074 0.0264245 -0.0212327 0.128186 -0.0533958 0.0438259 0.0868087 0.0595502 -0.110524 0.115384 -0.0325712 0.104533 -0.0711325 0.0234298 -0.000271231 -0.00475462 -0.101142 -0.112454 -0.0196148 0.0404094 -0.00351271 0.00436558 0.027093 -0.0120397 0.0341837 -0.0708637 -0.0735199 0.0615533 0.0218338 -0.0813037 0.0536589 -0.112203 0.0853641 0.0455846 -0.00645394 -0.0710917 -0.0942868 -0.115018 0.031635 0.0413179 0.133943 -0.0950552 0.0752147 0.0944518 -0.0490996 0.000621119 -0.0102006 0.0248745 -0.0616579 -0.0946279 0.0010466 -0.0108065 0.133469 -0.0692413 -0.0486682 -0.0590791 0.0224365 -0.0341347 -0.0876313 0.0516581 0.0776064 -0.0776894 0.0896475 0.0937807 -0.143761 -0.0471756 -0.0964037 -0.0690715 -0.0254915 0.105741 0.0397021 0.0665911 -0.0760198 0.0358132 -0.148895 -0.00409447 0.13089 -0.113058 -0.0374015 0.0470132 -0.0519113 0.0921145 0.0844667 -0.0818284 -0.0356423 -0.0386083 0.0536345 -0.0235668 0.0232811 0.0759637 0.0555905 0.00737243 -0.00891288 0.0110094 -0.0372528 0.0135371 -0.0320143
1378472 -0.0903066 -0.105359 0.17142 0.00665726 -0.00357931 0.0870087 0.0742754 0.0769077 -0.144279 0.0543626 0.0883592 0.014549 0.0158783 0.161805 -0.110009 -0.127697 -0.0598002 0.0334207 -0.0484724 -0.04162 0.0684038 -0.00637475 0.0189693 0.133529 -0.0270208 0.0410928 -0.0812486 0.0438838 0.140648 0.160723 -0.098903 0.0102925 0.0179562 -0.0262028 0.135323 -0.0573863 0.0496094 0.0895937 0.0694529 -0.096167 0.128118 -0.0507529 0.0948559 -0.0596273 0.0431844 0.00635446 0.010181 -0.100806 -0.115515 -0.0191972 0.0550438 0.00203148 -0.00353498 0.0108377 -0.0156929 0.0295843 -0.0653267 -0.0754986 0.0603177 0.0356247 -0.0805869 0.0618371 -0.119156 0.0728259 0.0457659 -0.00401838 -0.0628775 -0.0968573 -0.113744 0.0339534 0.0391504 0.124773 -0.108207 0.0627659 0.0899893 -0.0418893 -0.00521231 -0.0213946 0.029292 -0.0625116 -0.0912156 -0.0017704 -0.00787906 0.134686 -0.063664 -0.0493313 -0.0685511 0.0330454 -0.043873 -0.0955506 0.0622187 0.0872677 -0.0680585 0.0763501 0.101479 -0.143861 -0.0443013 -0.0877184 -0.0743602 -0.0303758 0.10928 0.0413015 0.0735276 -0.0794248 0.0342063 -0.156899 -0.0156481 0.126543 -0.118372 -0.0411408 0.0390535 -0.0503462 0.103881 0.100087 -0.0733521 -0.0317285 -0.0467906 0.0567803 -0.0345239 0.0180132 0.0795654 0.0710372 0.0125925 -0.0147452 0.0176299 -0.0421149 0.0236034 -0.0234497
4299208 -0.0886468 -0.0801035 0.128665 0.000237095 0.00176356 0.066027 0.0583227 0.0619039 -0.116012 0.0437281 0.0822336 0.0179697 0.0218731 0.126832 -0.0760529 -0.0977992 -0.0432106 0.0345467 -0.0356342 -0.0248738 0.0458479 0.00154377 0.00701352 0.103492 -0.0185394 0.0239818 -0.0613491 0.0240623 0.107295 0.129777 -0.0763385 0.0141276 0.0211882 -0.0136243 0.0981313 -0.0415825 0.0372509 0.0683133 0.0480184 -0.0887138 0.0959909 -0.0221078 0.0890751 -0.0567186 0.0138342 -0.00205893 -0.00261997 -0.0828349 -0.0938182 -0.0112278 0.031921 -0.000257986 -0.000198841 0.0267045 -0.00580198 0.0297798 -0.0554257 -0.0590595 0.048064 0.0214217 -0.069497 0.044586 -0.0878933 0.072903 0.0316279 -0.00348526 -0.0598411 -0.073962 -0.092859 0.0260399 0.0340853 0.108787 -0.0741505 0.0562153 0.0744725 -0.0345695 5.50697e-06 -0.0119053 0.0187501 -0.055309 -0.0775642 0.00221093 -0.00939564 0.108269 -0.0601108 -0.0428308 -0.0486099 0.0193519 -0.0288902 -0.0672029 0.0454577 0.0568748 -0.0674577 0.0755355 0.072219 -0.118186 -0.0345794 -0.0828998 -0.0556861 -0.0177562 0.0815336 0.035973 0.051429 -0.0621772 0.0298225 -0.118886 -0.00289124 0.101757 -0.0918719 -0.0256686 0.0397449 -0.0429597 0.0751703 0.0658924 -0.0685276 -0.0305915 -0.0271001 0.0420766 -0.015068 0.02006 0.0628802 0.0461852 -0.000231312 -0.00940724 0.00919514 -0.0282554 0.0136 -0.0243936
3727559 -0.182339 -0.180012 0.280208 0.00126607 -0.0037219 0.142176 0.121138 0.139663 -0.242295 0.0964861 0.171256 0.0308489 0.0482449 0.276214 -0.177034 -0.210182 -0.0881706 0.0673821 -0.0722205 -0.0516448 0.104602 0.00121179 0.0221633 0.219183 -0.0329904 0.0579172 -0.129169 0.0576635 0.228817 0.2773 -0.164439 0.023251 0.0453468 -0.0379 0.219824 -0.0886222 0.0761166 0.14555 0.104031 -0.187885 0.206381 -0.0632657 0.182954 -0.122661 0.0366535 -0.00462645 -0.00362729 -0.181816 -0.194182 -0.0323607 0.0732328 -0.00589961 0.00501325 0.0501261 -0.0162683 0.0545799 -0.117881 -0.126745 0.106652 0.039119 -0.139937 0.0911126 -0.182378 0.145514 0.0777701 -0.00553722 -0.123395 -0.166698 -0.200591 0.0595676 0.0663475 0.238088 -0.161333 0.125156 0.157889 -0.0783995 0.000503772 -0.0225983 0.0505921 -0.111078 -0.159657 -0.00709184 -0.00879608 0.233422 -0.123804 -0.090064 -0.0997893 0.0411252 -0.0554919 -0.157613 0.0989095 0.130095 -0.138751 0.149831 0.161368 -0.249687 -0.082128 -0.169512 -0.117333 -0.0451343 0.175172 0.0734712 0.111174 -0.132865 0.0595485 -0.261824 -0.00715628 0.216819 -0.201161 -0.0629382 0.0854218 -0.0862006 0.163847 0.149512 -0.145201 -0.0698401 -0.0618686 0.0932501 -0.0387975 0.040604 0.125868 0.100554 0.0088237 -0.0214279 0.0218803 -0.0681011 0.0287652 -0.0572976
4539259 -0.0465694 -0.225819 0.324219 0.0370181 -0.0152107 0.122407 0.182018 0.108974 -0.299491 0.0970222 0.0439971 0.0221059 -0.0722896 0.276856 -0.27648 -0.271532 -0.190069 0.013736 -0.115718 -0.153863 0.187603 -0.0304541 0.10947 0.293265 -0.0637606 0.11196 -0.162155 0.153247 0.272154 0.268732 -0.163526 -0.0165985 0.00392793 -0.0767044 0.302399 -0.124216 0.0925481 0.175643 0.224133 -0.0346548 0.248209 -0.234418 0.0660203 -0.0459877 0.206362 0.0741665 0.139077 -0.112427 -0.226372 -0.0554786 0.172933 0.0553972 -0.0579683 -0.0939924 -0.0888292 -0.00355285 -0.0760739 -0.136299 0.118478 0.148687 -0.0868899 0.188618 -0.274021 0.00834435 0.0828841 0.0231588 -0.0562511 -0.18925 -0.212617 0.0169889 0.0571719 0.0848902 -0.261627 0.00306376 0.0811887 -0.0403563 -0.0790551 -0.0818459 0.0763887 -0.101164 -0.159375 -0.00650236 0.0154233 0.238105 -0.00284661 -0.0205043 -0.19135 0.14454 -0.113264 -0.245878 0.156835 0.242073 -0.0319253 0.0518178 0.259836 -0.198218 -0.0736759 -0.0762026 -0.163827 -0.0710683 0.236346 0.082555 0.170824 -0.174944 0.0916508 -0.288328 -0.108949 0.17863 -0.225547 -0.148265 -0.0300572 -0.0722978 0.284512 0.275052 -0.0138671 0.0410961 -0.115702 0.125396 -0.127947 -0.052868 0.189711 0.171347 0.0605159 -0.0506603 0.0367572 -0.117636 0.130452 0.0335312
5752294 -0.0298814 -0.0289052 0.0483442 0.00079206 -0.0022445 0.0275348 0.0216319 0.0217803 -0.0415815 0.0201201 0.0307692 0.0051439 0.00843054 0.0434311 -0.0332631 -0.0362271 -0.0116602 0.00942351 -0.00919783 -0.0107167 0.017221 0.00139531 0.00430417 0.039229 -0.00530426 0.00987763 -0.0207021 0.00949619 0.0424118 0.0457908 -0.0262094 0.0056689 0.00774941 -0.00995034 0.0409531 -0.0136809 0.010474 0.0268208 0.0203337 -0.032859 0.0323709 -0.0126899 0.0303769 -0.0204165 0.00974833 -0.00396854 0.00147175 -0.028725 -0.0348872 -0.00515454 0.0121235 -0.00421082 0.00249569 0.0107598 -0.000587202 0.013202 -0.0204282 -0.0249984 0.0209258 0.00864018 -0.0247802 0.0135114 -0.0310103 0.0268893 0.0146525 -0.00433549 -0.0238255 -0.0250845 -0.0373961 0.0095273 0.0111937 0.0420244 -0.0277076 0.0201823 0.0269998 -0.0158183 0.00168122 -0.00742721 0.0094087 -0.015404 -0.0296001 -0.0012708 -0.00283375 0.0366452 -0.0197416 -0.0136311 -0.0187898 0.00534916 -0.00711692 -0.024521 0.0167967 0.0257692 -0.0237348 0.0267706 0.0314382 -0.0438927 -0.0108477 -0.0297707 -0.0172042 -0.00794624 0.0284207 0.0149732 0.0173409 -0.0214755 0.0112947 -0.0413277 -0.000711087 0.0365158 -0.0328741 -0.00889092 0.015615 -0.016907 0.0251769 0.0260611 -0.0243916 -0.00897319 -0.0100127 0.0132575 -0.00376035 0.00877237 0.0213831 0.0154765 0.0032972 -0.00393716 0.00176831 -0.0119023 0.00527899 -0.0129034
9638069 -0.0467027 -0.047918 0.0773158 0.000168972 -0.00269894 0.0401568 0.0348489 0.0344764 -0.0661156 0.0280489 0.0443182 0.00804494 0.0144168 0.0786808 -0.0454456 -0.0582252 -0.0208207 0.0212696 -0.018134 -0.0183044 0.0323513 -0.000127128 0.00443171 0.0611361 -0.00780258 0.0149687 -0.0370251 0.0184626 0.0620169 0.0787609 -0.0417096 0.006729 0.0111382 -0.00975585 0.06382 -0.0260234 0.0211006 0.0414196 0.0314747 -0.0508116 0.0578595 -0.0176755 0.0485931 -0.0343277 0.01384 0.0013031 -0.00279517 -0.0515387 -0.0542949 -0.011558 0.01932 0.000151277 0.00136977 0.012023 -0.00323128 0.0125539 -0.0283647 -0.0313002 0.0252215 0.0106711 -0.0415418 0.0283295 -0.0556818 0.0386461 0.0163401 0.00114126 -0.0303405 -0.0448938 -0.052782 0.0171657 0.0179819 0.0668433 -0.0469932 0.0363481 0.0447806 -0.0199021 -0.000172215 -0.00912477 0.0117872 -0.0285968 -0.042923 -0.000940851 -0.00459596 0.0642903 -0.0298215 -0.0243946 -0.0285972 0.0151776 -0.0137102 -0.0436092 0.024842 0.0380974 -0.0361779 0.0429696 0.0455637 -0.0647629 -0.0217975 -0.0472074 -0.036213 -0.00979642 0.0500137 0.0162065 0.0333443 -0.0351048 0.0194376 -0.0688429 -0.00451741 0.0618753 -0.0558749 -0.0164778 0.0245605 -0.0254063 0.0442651 0.0436676 -0.0434147 -0.0169097 -0.0197258 0.0228259 -0.0121475 0.0115304 0.0382138 0.0313896 0.000728955 -0.00560693 0.00423025 -0.0163221 0.00746902 -0.0112575
3889880 -0.0897794 -0.0868753 0.138962 0.00230994 -0.00194678 0.0681328 0.0608944 0.0684548 -0.118303 0.048632 0.0797537 0.0150748 0.0188862 0.131361 -0.0836165 -0.103177 -0.0426827 0.0313241 -0.0333228 -0.0254916 0.0488814 -0.000930779 0.00695533 0.104834 -0.0185769 0.028443 -0.0660329 0.0281136 0.109338 0.133659 -0.081952 0.00815999 0.0193241 -0.0160122 0.105733 -0.0448546 0.0391142 0.0720538 0.0501281 -0.0858671 0.100445 -0.0291337 0.0862661 -0.052906 0.0220579 0.00252787 0.000649522 -0.0864642 -0.0909 -0.0111345 0.0335061 -0.00561495 -0.000701929 0.0215542 -0.0112631 0.0249686 -0.056251 -0.0564244 0.0499059 0.0188863 -0.0698101 0.0456959 -0.0924366 0.0661172 0.0355368 -0.004009 -0.0582888 -0.0781521 -0.0919189 0.031644 0.0335429 0.110801 -0.08297 0.0611618 0.0746125 -0.0350905 -0.00184236 -0.0117742 0.02389 -0.0571224 -0.0794688 0.00159045 -0.00354822 0.115872 -0.0603969 -0.0423119 -0.053341 0.0241249 -0.0328323 -0.0725639 0.0422814 0.0632751 -0.0675768 0.0751603 0.0816271 -0.123994 -0.0369475 -0.0810896 -0.0597355 -0.0248971 0.0866346 0.0318312 0.0562468 -0.0609985 0.0289833 -0.129187 -0.010317 0.108944 -0.0937681 -0.027836 0.0337419 -0.0398624 0.079731 0.0759706 -0.0726266 -0.0332189 -0.0305624 0.0428972 -0.0172903 0.0214534 0.0609932 0.0473172 0.000792771 -0.0119406 0.0153453 -0.0364809 0.0150646 -0.0226979
9776021 -0.0357588 -0.0301626 0.0539033 0.000300993 0.000659429 0.0268173 0.0198903 0.0285904 -0.041979 0.0166203 0.0328998 0.00321087 0.0122335 0.0512489 -0.0271471 -0.0413133 -0.0167799 0.0170906 -0.0107392 -0.00618429 0.0151348 -0.00301416 0.000126434 0.0366035 -0.00304549 0.0127369 -0.0217114 0.0107832 0.0420418 0.0483419 -0.0274019 0.0024014 0.00712705 -0.00698289 0.0408541 -0.0137562 0.0113529 0.0238527 0.0188065 -0.0344441 0.0410866 -0.00610891 0.0356508 -0.0241952 0.00470444 -0.000525307 -0.000790369 -0.0348724 -0.0338924 -0.00479815 0.00856835 -0.00228033 0.000834141 0.0147713 -0.00349567 0.008943 -0.0243071 -0.0263465 0.0166532 0.00344072 -0.0243101 0.0123419 -0.0332842 0.0280755 0.0143639 -0.00266944 -0.0228659 -0.0297864 -0.0347343 0.0130101 0.00891264 0.0468346 -0.0287563 0.0251504 0.0287878 -0.0162583 0.00202444 -0.0041544 0.00852236 -0.0228572 -0.025831 -0.00138993 -0.00145005 0.0406468 -0.0262226 -0.016337 -0.0176794 0.00757739 -0.00689886 -0.0242635 0.0155035 0.0202409 -0.0297479 0.0326748 0.0262777 -0.0459708 -0.0190448 -0.0339377 -0.0210414 -0.00516957 0.0355913 0.0169441 0.0215981 -0.0264991 0.0105752 -0.046412 0.000467849 0.0434733 -0.0349338 -0.00946427 0.0144106 -0.0159098 0.0304047 0.0300451 -0.026934 -0.0124754 -0.00892217 0.0188069 -0.00614601 0.0102091 0.0213477 0.0178046 0.00100599 -0.00254143 0.00253995 -0.0124494 0.000844845 -0.0145806
10316699 -0.0634505 -0.0627189 0.0969308 -0.00117587 -0.00261741 0.0475154 0.0437014 0.0471697 -0.0807623 0.0335108 0.0586508 0.0120269 0.0151177 0.0948549 -0.0629991 -0.0729776 -0.0288603 0.0244909 -0.0224635 -0.018785 0.0365699 -0.000846014 0.00491106 0.0751619 -0.0149592 0.0185269 -0.0470334 0.0200536 0.0748763 0.0921907 -0.0570326 0.00416063 0.0150672 -0.0169713 0.0754143 -0.0261537 0.0270014 0.0524697 0.0355263 -0.0608376 0.0726356 -0.0225419 0.0642061 -0.0421185 0.0133023 -0.00241102 -9.08394e-05 -0.0639402 -0.0677117 -0.00825218 0.025909 -0.00166965 0.0047769 0.0157444 -0.00595968 0.0180245 -0.0379404 -0.0388484 0.0377632 0.0113764 -0.0456143 0.0345213 -0.0627664 0.047996 0.0251967 -3.85265e-05 -0.0410341 -0.0585099 -0.0634012 0.0171574 0.0257459 0.0783837 -0.0596556 0.0443633 0.0548915 -0.0285794 0.00156457 -0.00739944 0.0148464 -0.035173 -0.0509812 0.00182188 -0.00231673 0.0803951 -0.0444959 -0.0285966 -0.037133 0.0142721 -0.0207484 -0.0505163 0.0323096 0.0456454 -0.0419018 0.0490622 0.0569578 -0.0828929 -0.0306011 -0.0590697 -0.0424184 -0.0127224 0.0610357 0.0255298 0.0338638 -0.0442969 0.0235985 -0.0879171 -0.00397273 0.0732351 -0.0698126 -0.0230697 0.0301204 -0.0264221 0.0565516 0.0530809 -0.052387 -0.0191409 -0.0208588 0.0343143 -0.00996849 0.0125851 0.0437172 0.034392 0.00431965 -0.0100014 0.00725436 -0.0228696 0.00695579 -0.0163351
10044044 -0.115021 -0.113236 0.185118 0.00157825 -0.00265586 0.09038 0.077954 0.0905982 -0.160822 0.0652194 0.109631 0.0151371 0.0202675 0.174773 -0.117602 -0.140945 -0.0588032 0.0462007 -0.0499132 -0.0360483 0.0715609 -0.00488002 0.0134911 0.144499 -0.0236727 0.0381833 -0.0826371 0.0368915 0.147583 0.177003 -0.107077 0.0153279 0.0291857 -0.0276761 0.146418 -0.0538133 0.0493929 0.0955186 0.0730566 -0.114687 0.133845 -0.0423137 0.110664 -0.0731386 0.0339929 0.0013793 0.00143248 -0.110169 -0.123545 -0.0208261 0.0510605 -0.0019925 0.00142824 0.0277368 -0.0166081 0.0392995 -0.0756017 -0.0758815 0.0670475 0.0320712 -0.0857884 0.0615015 -0.125687 0.0850137 0.0480356 -0.00286037 -0.0735123 -0.103424 -0.129275 0.0323573 0.0387392 0.147547 -0.108175 0.0727026 0.0975422 -0.0527764 -0.00636467 -0.0158174 0.034151 -0.0731855 -0.0988974 -0.00375299 -0.0054039 0.152438 -0.0793479 -0.0547539 -0.072902 0.0267007 -0.0419618 -0.101142 0.0661151 0.0860672 -0.0808649 0.0957288 0.102199 -0.155268 -0.0480679 -0.106592 -0.07476 -0.0257887 0.113114 0.0448902 0.074904 -0.0858046 0.0351424 -0.168086 -0.00843212 0.141885 -0.124483 -0.0437174 0.0487817 -0.0538581 0.102905 0.102358 -0.0887014 -0.0365691 -0.0437612 0.0594323 -0.0257208 0.0220379 0.085262 0.0693873 0.00731335 -0.00918874 0.0145318 -0.0489274 0.02014 -0.0292454
5760534 -0.0291017 -0.0369706 0.0532419 -0.000757545 -0.00119862 0.0225475 0.0270979 0.0221316 -0.0455285 0.0150824 0.0242066 0.00387179 0.000754318 0.0530088 -0.0358999 -0.0395523 -0.0195089 0.00931696 -0.0125854 -0.0139548 0.0209143 -0.000453784 0.0028243 0.0420869 -0.00457364 0.0102648 -0.0258727 0.0103845 0.0452945 0.0489264 -0.0327994 -0.000203485 0.00567766 -0.00764376 0.0404179 -0.0213317 0.01728 0.0277803 0.0240047 -0.0282563 0.0393043 -0.0142584 0.0326792 -0.0165134 0.0142363 0.00393595 0.00594601 -0.0317684 -0.0360375 -0.00279143 0.016904 -0.00225654 -0.00219253 0.000993447 -0.0065115 0.0116177 -0.022591 -0.0199304 0.0195163 0.0139319 -0.0278217 0.0177127 -0.0339545 0.0219906 0.011183 -0.000916905 -0.0186722 -0.0298746 -0.038578 0.0132913 0.0102176 0.0372274 -0.0352993 0.0179515 0.025004 -0.0146874 -0.00578429 -0.00342818 0.00732431 -0.0205226 -0.0315013 0.00112279 -0.00508818 0.0452932 -0.0159367 -0.0147732 -0.0246446 0.0122674 -0.00990722 -0.0336072 0.0212794 0.0283728 -0.0193692 0.0274027 0.0349185 -0.0445673 -0.0155485 -0.027622 -0.0256449 -0.010065 0.0363048 0.0108664 0.0221553 -0.0279088 0.0100816 -0.0471821 -0.00495989 0.0410849 -0.0400422 -0.0138668 0.00733745 -0.0171093 0.0343952 0.0284182 -0.0234008 -0.0116566 -0.0109713 0.0153629 -0.0129078 0.00297085 0.0284511 0.0225617 0.003908 -0.00700072 0.00254129 -0.0108776 0.011141 -0.00607655
5470954 -0.0589011 -0.0612149 0.0919362 0.00395611 -0.00254994 0.0490245 0.040246 0.0431238 -0.0817992 0.0347288 0.0561728 0.00764761 0.0100558 0.0927995 -0.0552696 -0.0692469 -0.0320272 0.0199277 -0.0230287 -0.0156923 0.0329021 -0.00258631 0.0108032 0.0730945 -0.0126626 0.0239165 -0.0466377 0.0176856 0.0779259 0.0898431 -0.0510167 0.00898433 0.0101103 -0.009914 0.0685737 -0.0293225 0.0244746 0.0513979 0.0393108 -0.0580018 0.0645039 -0.0215143 0.060151 -0.0362353 0.0179374 -0.00313383 0.00120478 -0.0605861 -0.060775 -0.0117803 0.0225312 -0.00136788 0.00130941 0.01447 -0.00376033 0.0150105 -0.0365637 -0.0425573 0.0320961 0.0166106 -0.0435115 0.0327915 -0.064366 0.0436626 0.0204774 -0.00272748 -0.041341 -0.0523329 -0.0649718 0.0196508 0.0207082 0.0776151 -0.0553683 0.0404609 0.0557145 -0.0216406 -0.00292989 -0.00722359 0.0166657 -0.0401613 -0.0485559 0.00170509 -0.00473712 0.0747231 -0.0375951 -0.0278177 -0.036947 0.0154518 -0.0205406 -0.0517005 0.0345061 0.0416719 -0.044837 0.0460915 0.04952 -0.0787478 -0.0231284 -0.0504664 -0.0400322 -0.0168192 0.054168 0.0197264 0.03929 -0.0393626 0.0179207 -0.0837752 -0.00377892 0.0712328 -0.0619032 -0.0250384 0.0259526 -0.0291593 0.0487074 0.0470292 -0.043509 -0.0219802 -0.0188896 0.0312795 -0.0150725 0.0143005 0.042384 0.0299048 0.00470152 -0.00437173 0.0050512 -0.0207292 0.0082591 -0.01576
6737555 -0.0917788 -0.101257 0.154827 0.00238164 0.000748799 0.0821591 0.0667284 0.0700177 -0.136046 0.0515565 0.0878086 0.013557 0.0154994 0.151687 -0.100428 -0.119408 -0.0531791 0.039082 -0.0456049 -0.033389 0.0585333 0.00226385 0.015875 0.120215 -0.0214804 0.0314628 -0.0733092 0.0320112 0.12991 0.14772 -0.0910658 0.00859111 0.0203082 -0.0255441 0.126339 -0.0512361 0.0462594 0.0784349 0.0647433 -0.097538 0.116123 -0.0395508 0.0914326 -0.0592553 0.0329374 -0.00124351 0.0071466 -0.0912429 -0.103957 -0.0145249 0.0426245 -0.0022039 -0.00301946 0.0190174 -0.0116479 0.0329932 -0.0660937 -0.0697718 0.0604764 0.0272045 -0.0767366 0.0582048 -0.101229 0.0709846 0.0393647 -0.00553119 -0.0586988 -0.0887723 -0.110728 0.0278569 0.0351017 0.118333 -0.0923309 0.0655825 0.0881795 -0.0414291 -0.00700245 -0.0148159 0.0281898 -0.0567473 -0.0830729 -0.00559924 -0.00454919 0.126529 -0.0668875 -0.0477648 -0.0587872 0.0228041 -0.0346111 -0.0894958 0.0541731 0.0777856 -0.0732301 0.0759323 0.0874668 -0.137534 -0.0451929 -0.0887825 -0.062883 -0.0234546 0.0950083 0.0392808 0.0657772 -0.0696443 0.0315234 -0.144751 -0.00964826 0.118837 -0.105385 -0.0413833 0.0349296 -0.0438179 0.087163 0.0843317 -0.0746291 -0.0358381 -0.0356915 0.0504531 -0.0277455 0.0202955 0.0720574 0.0558677 0.00308441 -0.0143462 0.0160209 -0.0421046 0.019415 -0.0262748
1486473 -0.0790775 -0.0841144 0.131227 -0.000904768 0.000862056 0.0663815 0.0601797 0.0600506 -0.116197 0.048689 0.0803553 0.0146102 0.0150723 0.12622 -0.0768358 -0.101359 -0.0440152 0.0293654 -0.0345037 -0.0259714 0.0479379 -0.00318432 0.00964258 0.104319 -0.0203892 0.0268358 -0.0627802 0.0287389 0.105342 0.12748 -0.075042 0.0142247 0.0153006 -0.0217508 0.100974 -0.0419924 0.0388379 0.0658864 0.0498121 -0.0800673 0.0907282 -0.0283622 0.0795485 -0.0537509 0.0238405 -0.00182731 0.00436463 -0.0788734 -0.0897549 -0.0179894 0.0397675 0.0018868 -0.000216677 0.0226453 -0.0130717 0.0262786 -0.0581611 -0.0564696 0.0507107 0.0186616 -0.0629584 0.0411122 -0.0870681 0.0625572 0.0297845 -0.000717805 -0.0533338 -0.0734146 -0.0881304 0.0279597 0.0317908 0.108305 -0.0808146 0.0524899 0.0742109 -0.0393745 -0.00244466 -0.0155661 0.0194214 -0.055787 -0.0720075 -0.000775403 -0.000890512 0.109281 -0.055053 -0.0387945 -0.0522589 0.0156152 -0.0254145 -0.0748736 0.0458774 0.057057 -0.0629851 0.0673212 0.0703519 -0.110935 -0.0377487 -0.0722685 -0.0540343 -0.0222511 0.0790012 0.0334212 0.053787 -0.0636068 0.0269729 -0.123477 -0.00370227 0.0986259 -0.0933689 -0.0337625 0.0369646 -0.0438731 0.0744403 0.0685849 -0.0654123 -0.028107 -0.0321749 0.0467446 -0.0219981 0.0148284 0.0590043 0.0466858 0.00466384 -0.00577363 0.0115998 -0.0360089 0.0139098 -0.0204775
5392522 -0.0801816 -0.072582 0.122889 -0.00090154 0.000963154 0.0635726 0.0481743 0.0614698 -0.103665 0.0399336 0.0746253 0.0111053 0.0197382 0.114916 -0.0722096 -0.0866838 -0.0400358 0.0319396 -0.0351614 -0.0204974 0.0459163 -0.00356843 0.00766378 0.0960401 -0.0187033 0.0247781 -0.0566004 0.0243597 0.0959056 0.114285 -0.0680674 0.00824948 0.0172482 -0.0174229 0.0962033 -0.0407043 0.029144 0.064568 0.0426262 -0.0780234 0.0868783 -0.023968 0.0749067 -0.0524869 0.0204164 -0.00189735 -0.00112784 -0.0723847 -0.0838973 -0.0110226 0.028093 -0.00113907 0.000976002 0.0187038 -0.00726462 0.025038 -0.0504574 -0.0503464 0.0411197 0.0197517 -0.0617995 0.0380157 -0.0781473 0.058946 0.0273842 -0.000889807 -0.0497145 -0.0728933 -0.0797777 0.0289517 0.0289944 0.101653 -0.0715067 0.0550978 0.068961 -0.0339736 0.000231273 -0.00813266 0.0164957 -0.0438155 -0.0639705 -0.00386718 -0.00537682 0.0955963 -0.0553463 -0.0372525 -0.0459401 0.0143732 -0.0257354 -0.0615925 0.0365726 0.0586026 -0.0609473 0.0633121 0.0687806 -0.106299 -0.0307523 -0.0746907 -0.0513889 -0.0194472 0.0709921 0.0279513 0.0429847 -0.0523317 0.0216514 -0.110292 -0.00565608 0.0964741 -0.0827986 -0.0253006 0.0320228 -0.0391398 0.0688379 0.0622512 -0.0594786 -0.0318115 -0.0295566 0.0416548 -0.0176339 0.0175455 0.0577646 0.0438698 0.00245867 -0.0111939 0.013711 -0.0313293 0.0152681 -0.0272283
4864990 -0.0243058 -0.0243391 0.0396757 0.00320152 -0.0032029 0.0210043 0.0130012 0.0143229 -0.0319906 0.0102118 0.018921 0.00208763 0.00352365 0.0379565 -0.0189106 -0.0311457 -0.012907 0.0111024 -0.0103403 -0.00562886 0.0164237 0.00227609 0.00285699 0.0316327 -0.00695743 0.00847419 -0.0201388 0.00873852 0.0312041 0.0319188 -0.0221778 0.00067259 0.00761058 -0.00588429 0.0256635 -0.00990559 0.00887448 0.0191188 0.0147154 -0.0190263 0.0262461 -0.00690683 0.0215141 -0.0151849 0.00720274 -0.00309008 -0.00193475 -0.024699 -0.027386 -0.00434612 0.012048 -0.00160728 0.00162778 0.00340413 -0.0024459 0.0103925 -0.014197 -0.0183527 0.010942 0.00459639 -0.0171637 0.00978135 -0.0254135 0.0150048 0.0121925 -0.00194143 -0.017781 -0.0204701 -0.0265437 0.00926978 0.00648063 0.0290239 -0.0234918 0.0154329 0.0171601 -0.0109551 0.00121903 -0.00247086 0.0086389 -0.0102207 -0.0186057 0.000775029 -0.00385561 0.0326966 -0.0111776 -0.0129666 -0.0145531 0.00297259 -0.00568611 -0.0177155 0.0149079 0.0186012 -0.0180482 0.0190318 0.0175041 -0.0296474 -0.0142036 -0.0224888 -0.0133198 -0.00610123 0.0188221 0.0100252 0.0169992 -0.0132336 0.00978915 -0.0293966 -0.00527186 0.0249278 -0.0225448 -0.0107762 0.0101031 -0.00951543 0.0246993 0.0224187 -0.0162785 -0.00915928 -0.00831942 0.013735 -0.00749586 0.0061786 0.0154128 0.0161146 0.00290211 -0.00174911 0.00475805 -0.0101767 0.00664886 -0.00846327
10032701 -0.141506 -0.144742 0.231767 0.00490075 0.00121376 0.120293 0.0974203 0.110542 -0.203914 0.0817981 0.137932 0.0232353 0.028523 0.2241 -0.146578 -0.17546 -0.0721921 0.0533013 -0.0641621 -0.0521502 0.089128 -0.00138742 0.0230687 0.183113 -0.0286496 0.0531842 -0.107526 0.0516721 0.186124 0.226657 -0.134545 0.0128658 0.0352858 -0.0339173 0.184768 -0.0758288 0.0622673 0.118823 0.0939247 -0.144423 0.167567 -0.0542074 0.143521 -0.0924632 0.0419764 -0.00101594 0.00484228 -0.14154 -0.159582 -0.0244989 0.0662493 0.00275849 0.00400764 0.0330712 -0.0146766 0.0482351 -0.0910858 -0.0967545 0.0824223 0.0390514 -0.115691 0.0824338 -0.151504 0.113572 0.0583053 -0.00138121 -0.097524 -0.138757 -0.160442 0.0451719 0.0550991 0.185315 -0.137842 0.0984222 0.124114 -0.0592804 -0.00756863 -0.022249 0.0394334 -0.0879232 -0.125942 -0.00452234 -0.0062041 0.192351 -0.0997855 -0.0733681 -0.0885352 0.0412659 -0.052355 -0.124662 0.0762738 0.107566 -0.102063 0.115558 0.132772 -0.202641 -0.0659517 -0.131074 -0.0942497 -0.0366389 0.146406 0.060315 0.0934721 -0.106707 0.0522965 -0.212712 -0.0105121 0.178174 -0.163756 -0.0527055 0.0625412 -0.0666895 0.131613 0.126298 -0.116436 -0.0467908 -0.0572676 0.0752009 -0.0394727 0.0288762 0.104337 0.086093 0.00687919 -0.0174313 0.0177648 -0.0607575 0.0236249 -0.0398822
3516217 -0.0160741 -0.0225877 0.0303293 0.00322583 -0.00375187 0.0146908 0.0165719 0.0173147 -0.0323315 0.0134902 0.0218511 0.00155977 0.00234084 0.0342002 -0.0196283 -0.0268937 -0.0138343 0.00628752 -0.0129828 -0.0044302 0.0157385 0.00250972 0.00485375 0.0282722 -0.00212482 0.0104808 -0.0193701 0.00784826 0.0263943 0.0287195 -0.0181039 -0.00106931 0.00499561 -0.00455821 0.0281605 -0.00960894 0.0123164 0.0191423 0.0109521 -0.01881 0.0232501 -0.0130975 0.0223777 -0.0127247 0.00899406 0.00211819 0.00494789 -0.0198679 -0.0216347 -0.00276052 0.0087326 0.0014708 0.00175236 0.00548596 -0.0014133 0.00227726 -0.0115239 -0.0126718 0.0157718 0.00657403 -0.0186643 0.0160906 -0.0213731 0.0147323 0.00823528 7.61549e-06 -0.0125033 -0.019571 -0.0261536 0.0062076 0.00784598 0.0214176 -0.0170498 0.0121347 0.0147834 -0.0089584 -0.00515294 -0.000723783 0.00213365 -0.0122016 -0.0176814 -0.000770689 0.00247303 0.0277444 -0.0162113 -0.0129624 -0.0166608 0.00904501 -0.0104201 -0.019489 0.0139275 0.018727 -0.0117699 0.0166179 0.0162998 -0.0295707 -0.00769312 -0.0177393 -0.0146365 -0.00820467 0.0239169 0.0100928 0.0155244 -0.0183538 0.00425772 -0.0304203 -0.00397614 0.0262862 -0.0265447 -0.00458905 0.00749738 -0.0101037 0.0190253 0.0182054 -0.0153108 -0.00778265 -0.0102162 0.0114915 -0.00867522 0.00457599 0.019485 0.0154594 -0.000949398 -0.00583897 0.00481523 -0.00551142 0.00724246 -0.00209881
2806411 -0.100851 -0.0887812 0.144657 -0.0015017 0.000496145 0.0792071 0.06059 0.0751283 -0.128459 0.0524957 0.0928343 0.0139779 0.0223322 0.139143 -0.0845902 -0.109302 -0.0466457 0.0381724 -0.036929 -0.0256181 0.0547564 -0.00220807 0.00530422 0.114873 -0.0165553 0.0308121 -0.0651713 0.0283591 0.118079 0.144152 -0.0842692 0.00880971 0.0233312 -0.0180992 0.11545 -0.0443798 0.0418105 0.0795243 0.0491578 -0.0967375 0.106167 -0.024202 0.0962729 -0.0640411 0.0145847 -0.00290995 -0.00846689 -0.0935099 -0.100847 -0.0183143 0.0369431 -0.00371284 0.00426048 0.0250245 -0.00873258 0.0308041 -0.0610114 -0.0604967 0.0556058 0.0188903 -0.0766078 0.0480139 -0.0937383 0.0815841 0.0371286 -0.00664894 -0.0675809 -0.0839185 -0.100279 0.0338112 0.0349394 0.125484 -0.0848163 0.068998 0.0863483 -0.0392261 0.00281483 -0.0106606 0.0271978 -0.0595932 -0.0836051 0.00201331 -0.00990508 0.120109 -0.0658329 -0.0516765 -0.0517527 0.0181893 -0.0274675 -0.0810363 0.0476247 0.0685116 -0.0721744 0.0795428 0.0794575 -0.129544 -0.0443291 -0.0859647 -0.060155 -0.0203945 0.0901551 0.0361406 0.0561258 -0.065934 0.0308448 -0.138897 -0.000223148 0.113563 -0.105353 -0.0293832 0.0463646 -0.0481159 0.0772666 0.0725323 -0.0831582 -0.0357005 -0.0352053 0.0481227 -0.0199475 0.0270759 0.0635503 0.0488301 0.00495226 -0.0109606 0.0141951 -0.0379464 0.00801865 -0.0350051
11973070 -0.130327 -0.130758 0.21139 0.0074873 0.00142993 0.11008 0.0912336 0.102909 -0.18377 0.0752849 0.126661 0.0242517 0.0306663 0.203716 -0.133091 -0.160291 -0.0642272 0.051788 -0.059994 -0.0410012 0.0783013 -0.00546876 0.0215205 0.168836 -0.025478 0.0481421 -0.0949499 0.0442221 0.172928 0.202623 -0.122865 0.0152844 0.0299468 -0.0313263 0.168405 -0.0654822 0.0574087 0.109461 0.078287 -0.133792 0.149916 -0.0460979 0.128427 -0.0834853 0.0339807 -8.30612e-05 0.00414696 -0.130063 -0.147313 -0.0266583 0.0552377 0.00189153 0.00029069 0.0293041 -0.0141652 0.0449461 -0.089706 -0.0905777 0.0801873 0.0337463 -0.101129 0.0703642 -0.141388 0.102771 0.0518065 -0.00456344 -0.0868142 -0.120568 -0.14794 0.0391912 0.0460888 0.169502 -0.127152 0.0889731 0.119655 -0.0547913 -0.00673966 -0.0158479 0.0325778 -0.0838343 -0.117167 -0.000564943 -0.00601881 0.173594 -0.0904478 -0.0618812 -0.0816312 0.0347958 -0.042774 -0.11591 0.0711925 0.0958433 -0.0941322 0.104331 0.121217 -0.181757 -0.0569323 -0.12287 -0.0868533 -0.0339181 0.13102 0.0490935 0.0833989 -0.101237 0.0474556 -0.194214 -0.00930356 0.164067 -0.146013 -0.0504207 0.0513632 -0.0643738 0.1212 0.113152 -0.103108 -0.0479519 -0.0505804 0.0662188 -0.0301285 0.0278337 0.0925992 0.0750527 0.00412931 -0.0173524 0.0165834 -0.0506318 0.0233349 -0.0367579
12063955 -0.0405117 -0.0357731 0.0613432 0.00343812 0.0020479 0.0309603 0.025975 0.0286123 -0.0494997 0.017222 0.0405065 0.00976668 0.0104916 0.0554356 -0.036543 -0.0410652 -0.0154492 0.0144412 -0.013798 -0.0115498 0.0190304 -0.00109824 0.000361896 0.0498471 -0.00726325 0.0122411 -0.0309893 0.00726459 0.050228 0.0550723 -0.0386371 0.00124836 0.00951609 -0.00593365 0.0428075 -0.0194391 0.0154683 0.0298347 0.0206569 -0.0443983 0.0427758 -0.0110238 0.0399571 -0.0300476 0.00637767 -0.00576149 -0.00469912 -0.0398418 -0.0411628 -0.00615629 0.0170787 -0.00363143 0.00474586 0.0100183 -0.00113305 0.0142436 -0.0293868 -0.0241491 0.0198683 0.00476357 -0.0313546 0.0173689 -0.0387353 0.0319494 0.0118595 -0.00570043 -0.0274059 -0.0358923 -0.0393405 0.0147339 0.0176572 0.0520399 -0.0344238 0.0290615 0.0316241 -0.018653 0.000211434 -0.00545446 0.0102629 -0.0269633 -0.0366436 -0.00251079 -0.00286534 0.0497467 -0.0300533 -0.0195586 -0.0238464 0.00971427 -0.0107399 -0.0350586 0.0191271 0.0277792 -0.032953 0.0355387 0.0293733 -0.0507371 -0.0140119 -0.0372831 -0.0261493 -0.0122008 0.034011 0.018025 0.0256271 -0.0290071 0.0131962 -0.0587295 0.00017641 0.0496111 -0.0406663 -0.0100436 0.0206635 -0.016453 0.0301563 0.0343059 -0.029715 -0.0116751 -0.0114901 0.0173439 -0.00548291 0.0092382 0.0293002 0.0237161 0.00326397 -2.02607e-05 0.0069869 -0.0165854 0.00211008 -0.0127786
319519 -0.0903126 -0.0970942 0.156956 0.00609734 -0.00329577 0.0815569 0.0683506 0.0752061 -0.137103 0.0524031 0.0880048 0.0168633 0.0192038 0.146183 -0.0959092 -0.121375 -0.0531982 0.0350387 -0.0419891 -0.0304748 0.0590113 -0.000779118 0.014186 0.126785 -0.0190766 0.0384978 -0.0704379 0.0339916 0.126961 0.148534 -0.0869479 0.0133232 0.0238286 -0.0216935 0.120218 -0.0532049 0.045793 0.0803081 0.0588631 -0.0922885 0.115166 -0.037205 0.0974426 -0.0645081 0.0315879 0.00315423 0.00289049 -0.0978148 -0.106182 -0.0203746 0.045978 -0.00363613 0.000631231 0.018392 -0.0134876 0.0309377 -0.0599941 -0.0650575 0.0554605 0.0227565 -0.0725143 0.0515915 -0.102429 0.0744379 0.0373844 -0.000436914 -0.0659886 -0.0912617 -0.111228 0.0273438 0.034163 0.121277 -0.0975998 0.0626492 0.0888873 -0.0442975 -0.00562148 -0.0157288 0.0265254 -0.063835 -0.0877162 -0.00596006 -0.00324169 0.127357 -0.062771 -0.0484212 -0.062132 0.027058 -0.0345474 -0.0868536 0.0556807 0.0760092 -0.0731389 0.0751655 0.088815 -0.134372 -0.0411977 -0.0888821 -0.0619164 -0.0216794 0.101112 0.0420687 0.0601731 -0.074333 0.035225 -0.14359 -0.0120659 0.116513 -0.10809 -0.0367914 0.037185 -0.04987 0.0942339 0.0874936 -0.0749972 -0.0357788 -0.0383924 0.0513909 -0.0273525 0.0226888 0.0717488 0.0604286 0.0026722 -0.0087826 0.0147816 -0.0389195 0.0175424 -0.0233653
4978346 -0.092585 -0.092832 0.147834 0.00618596 0.00201713 0.0785156 0.0650783 0.0709772 -0.129016 0.0469359 0.0815831 0.0112467 0.0146598 0.139579 -0.0893247 -0.107921 -0.0446125 0.0337303 -0.0416957 -0.0280661 0.05915 0.00110252 0.014369 0.117224 -0.0229241 0.0321255 -0.0679139 0.0345796 0.122541 0.143909 -0.0812438 0.0122873 0.0188713 -0.0241617 0.116097 -0.0445692 0.0396109 0.0786649 0.0551125 -0.091006 0.103417 -0.0325172 0.0901991 -0.0552595 0.029651 -0.00120957 0.00293126 -0.0931879 -0.102603 -0.0151957 0.0444597 0.00307444 -0.00291117 0.0186537 -0.0142119 0.0281292 -0.0577122 -0.0662721 0.0520622 0.0251192 -0.0743993 0.0506456 -0.0954978 0.0661543 0.0374444 -0.0048168 -0.0616297 -0.0855821 -0.100538 0.0292712 0.0326538 0.119586 -0.0877581 0.059594 0.0777645 -0.0432282 0.000292073 -0.0159611 0.0256843 -0.0588601 -0.0818218 -0.00338186 -0.00199635 0.121667 -0.0624631 -0.04763 -0.0601008 0.0217455 -0.0352588 -0.0821966 0.0542639 0.0696736 -0.0678264 0.0744779 0.0857468 -0.124976 -0.0381795 -0.082996 -0.061832 -0.0208248 0.0908443 0.0398136 0.0594244 -0.0694606 0.0293808 -0.137646 -0.0112448 0.113659 -0.0987193 -0.0332549 0.0343557 -0.0466192 0.0836868 0.0852778 -0.0756052 -0.0306865 -0.0380391 0.0454389 -0.0239757 0.0143346 0.0661023 0.0544252 0.00342515 -0.00812432 0.0134067 -0.0395478 0.015148 -0.0264288
12462274 -0.0196891 -0.020012 0.0313549 -0.00202535 0.00377883 0.0110074 0.00947249 0.0131607 -0.0227231 0.00662472 0.0172216 0.00186494 0.00711138 0.0276225 -0.0149304 -0.0231703 -0.00552598 0.0102538 -0.00637204 -0.00781992 0.00745599 -0.00391326 0.00429297 0.025209 -0.00520314 0.0078636 -0.0116412 0.0066819 0.0205563 0.0277386 -0.0135357 0.00515413 0.00740738 -0.00362092 0.0251413 -0.00927528 0.0100256 0.0157116 0.00921529 -0.0216697 0.0196557 -0.00763217 0.0190958 -0.0123535 0.00801709 -0.00113732 -0.00335867 -0.0171709 -0.0155782 -0.00409073 0.00529129 0.00142418 0.00058826 0.00474214 -0.00159722 0.00768741 -0.0132885 -0.00865993 0.010207 0.00679269 -0.0174904 0.00562938 -0.0213443 0.015714 0.0093997 -0.000921225 -0.00799871 -0.016401 -0.0197693 0.00792507 0.0103232 0.0222375 -0.0201514 0.0152344 0.0162715 -0.010337 -0.000432909 -0.00100358 0.00740002 -0.00940194 -0.015482 0.000352894 -0.00299289 0.0195784 -0.0126597 -0.00898718 -0.00836694 0.00667054 -0.00735888 -0.0127199 0.00800007 0.0114315 -0.0133299 0.0162559 0.0161844 -0.025515 -0.00542591 -0.0158761 -0.0126933 -0.00673685 0.0165996 0.00716375 0.0125111 -0.00937916 0.00781482 -0.0246688 -0.00133976 0.0189347 -0.0169618 -0.0040943 0.00460229 -0.00878576 0.0144927 0.0161692 -0.0180237 -0.00813381 -0.0094975 0.0106888 -0.00446832 0.00600576 0.0111488 0.00970718 -0.00205371 0.000886271 -3.63184e-05 -0.00731555 0.00246661 -0.00729484
3192706 -0.072188 -0.0729587 0.117095 -0.00185855 0.00180784 0.0574625 0.047774 0.05232 -0.0982919 0.0406249 0.0684293 0.0111866 0.015502 0.113946 -0.0718777 -0.0873725 -0.0315731 0.0321042 -0.0302668 -0.0188711 0.0441445 -0.00371723 0.0105485 0.0928344 -0.0161704 0.0202246 -0.0563882 0.0221779 0.095877 0.110419 -0.0641552 0.00684347 0.0161509 -0.0190693 0.0895443 -0.0321792 0.03039 0.060199 0.0410689 -0.0759541 0.0861487 -0.020845 0.0712039 -0.0453402 0.0130722 -0.000752536 -0.00555841 -0.0740043 -0.0776726 -0.00952787 0.027063 -0.00251429 0.001145 0.0181853 -0.00544452 0.0286249 -0.0519893 -0.0492324 0.0412543 0.0152982 -0.0588547 0.0393513 -0.0745267 0.0629312 0.0277315 -0.000415318 -0.0467612 -0.0677883 -0.0813645 0.0232679 0.0231302 0.0948413 -0.062516 0.050726 0.0638511 -0.0361995 0.00289293 -0.0059179 0.0162419 -0.0434445 -0.065051 -0.00278834 -0.00243948 0.0937324 -0.0560125 -0.0396667 -0.0401751 0.0188697 -0.0241763 -0.0577329 0.0352999 0.047984 -0.0553263 0.0630431 0.0650314 -0.10101 -0.0297448 -0.0683738 -0.0453047 -0.0171838 0.0691101 0.0318682 0.0445763 -0.0485356 0.0212351 -0.107 -0.00157844 0.0882004 -0.0759303 -0.0208913 0.0314771 -0.0356956 0.0641944 0.0590793 -0.0628611 -0.0272774 -0.0291895 0.0399987 -0.0153579 0.0182751 0.0502922 0.0427598 0.00173784 -0.00782187 0.0112561 -0.0268565 0.0141047 -0.0231076
2595716 -0.0653301 -0.0690455 0.106248 0.00376324 0.00377091 0.0550679 0.0477901 0.052531 -0.0946095 0.0333567 0.0672686 0.00720238 0.0134907 0.105288 -0.0613025 -0.0817351 -0.0327435 0.0293366 -0.0283147 -0.0215073 0.0391222 0.00336966 0.0105459 0.0795159 -0.014129 0.0211581 -0.0489296 0.0241429 0.087532 0.104496 -0.0616933 0.00999734 0.0189488 -0.0154625 0.0842397 -0.0294699 0.0282959 0.05183 0.0421734 -0.0680273 0.0748945 -0.0258605 0.068981 -0.0424465 0.0128088 0.00193877 0.00155123 -0.069112 -0.0702495 -0.00803105 0.0310236 0.00127229 0.00450598 0.0186664 -0.0105674 0.0184964 -0.0451253 -0.04913 0.0368054 0.0138672 -0.0558023 0.0355002 -0.0683987 0.0542828 0.0253238 -0.00602054 -0.0450221 -0.060831 -0.0711453 0.0246451 0.0214165 0.0867295 -0.0605679 0.043544 0.0601896 -0.0302382 0.00261148 -0.0120118 0.0202048 -0.0432467 -0.0599181 -0.00368068 -0.00765915 0.0893261 -0.0474539 -0.0354103 -0.0405946 0.0186856 -0.0252881 -0.0573845 0.03608 0.0480746 -0.051429 0.0536497 0.0576438 -0.0933567 -0.0281487 -0.0599988 -0.0445242 -0.0202231 0.0649945 0.0241891 0.0388397 -0.045309 0.0191447 -0.0987337 -0.00742149 0.0806624 -0.073322 -0.024851 0.027602 -0.0325125 0.0573384 0.0559567 -0.0573344 -0.0258426 -0.024886 0.0336499 -0.0187471 0.0177699 0.0466831 0.03424 0.00379453 -0.00851436 0.0110888 -0.0292864 0.0143675 -0.0167282
1711475 -0.0764175 -0.0787848 0.123393 0.0026021 0.00232784 0.0632471 0.057625 0.0585619 -0.112991 0.0393542 0.0706846 0.0160366 0.0129878 0.125404 -0.0801403 -0.096234 -0.0411999 0.030116 -0.0366317 -0.0290555 0.0532513 -0.00137223 0.0117687 0.102916 -0.0210886 0.0314923 -0.0568579 0.0244164 0.10657 0.125543 -0.069456 0.00924672 0.0187597 -0.0176142 0.102504 -0.0430748 0.0371704 0.0669807 0.0471411 -0.0761598 0.0921444 -0.0306692 0.0750222 -0.0505706 0.0202312 0.00352218 0.00483466 -0.0779951 -0.0863415 -0.0169302 0.0373354 -0.0013288 -0.000412268 0.01844 -0.00749379 0.0213747 -0.0481342 -0.0576578 0.0471162 0.0241328 -0.0647584 0.0421077 -0.0819143 0.0613376 0.0361543 -0.00349522 -0.0476685 -0.0708206 -0.0914518 0.0217283 0.025821 0.0996313 -0.0746905 0.0532271 0.0707784 -0.0357435 -0.000335487 -0.0101869 0.0202146 -0.0505057 -0.0711788 -0.00325144 -0.00213606 0.10625 -0.0535972 -0.0354882 -0.0499452 0.0228071 -0.0270615 -0.070397 0.0424481 0.0636 -0.0545507 0.0610666 0.0758578 -0.112671 -0.0378745 -0.0706963 -0.0544147 -0.018595 0.0833917 0.0300241 0.0522582 -0.0592807 0.0256232 -0.114971 -0.00467905 0.100104 -0.0907951 -0.0339674 0.0292107 -0.0366657 0.076872 0.0688432 -0.0604127 -0.028699 -0.0317104 0.0414919 -0.0221969 0.0180173 0.0583478 0.0434683 0.00858126 -0.00824692 0.0104013 -0.0347832 0.0160758 -0.0229638
9759389 -0.0685236 -0.070639 0.116733 0.00715139 0.00191466 0.0582347 0.0463626 0.0544831 -0.0993495 0.0363962 0.0660707 0.0123863 0.0109964 0.110734 -0.0727007 -0.0903624 -0.0402286 0.0240694 -0.0283833 -0.0277284 0.0496881 0.000962168 0.00803877 0.0927199 -0.0125308 0.0234516 -0.0525251 0.0275994 0.0945389 0.110253 -0.0644034 0.0102006 0.0121321 -0.0139079 0.0877347 -0.0359382 0.0286065 0.0574386 0.048028 -0.0681515 0.0842515 -0.031838 0.0633114 -0.0408229 0.0258859 0.000435078 0.00395133 -0.0700927 -0.0781853 -0.0143666 0.0357273 0.00364816 -0.00362677 0.0142168 -0.0132675 0.0241562 -0.0491954 -0.0478137 0.0449014 0.0210212 -0.0534912 0.0395902 -0.0736144 0.0476505 0.0310337 0.00147073 -0.0425081 -0.0696447 -0.0819171 0.0211575 0.0291266 0.0872001 -0.066372 0.0409989 0.0603061 -0.032525 -0.00341681 -0.0142479 0.0191062 -0.0444908 -0.0608644 0.000115566 -0.00169911 0.095719 -0.0426908 -0.0324976 -0.0441424 0.0167698 -0.0260998 -0.0667297 0.0415205 0.0538678 -0.0519494 0.0547705 0.071076 -0.0963148 -0.0284621 -0.0636516 -0.0481333 -0.0201042 0.0729044 0.0272578 0.0423193 -0.0507637 0.0276954 -0.105124 -0.0123854 0.0827628 -0.0793868 -0.0255136 0.0249526 -0.0341084 0.0646878 0.0684254 -0.051072 -0.0228479 -0.025269 0.0410254 -0.0177707 0.0128079 0.0498674 0.0411093 0.00560016 -0.00714064 0.0087419 -0.0274629 0.0144209 -0.022115
3017456 -0.190132 -0.184247 0.299229 0.00794189 0.00131773 0.158159 0.124535 0.147182 -0.257156 0.105426 0.177005 0.0314793 0.0427165 0.292736 -0.186493 -0.223801 -0.0914713 0.0739978 -0.0798916 -0.0553941 0.112191 -0.00417787 0.0184802 0.235262 -0.0359455 0.0672791 -0.144295 0.062512 0.238672 0.294809 -0.176678 0.0214146 0.042131 -0.0382733 0.234907 -0.092163 0.0823676 0.151869 0.111837 -0.198639 0.215 -0.0631244 0.186475 -0.126813 0.0485027 -0.00643249 -0.00365786 -0.190187 -0.201293 -0.0319306 0.0814688 -0.00595477 0.00128322 0.047436 -0.0234421 0.0624292 -0.126829 -0.131838 0.108523 0.0410338 -0.150906 0.103911 -0.197444 0.152929 0.0796822 -0.00558333 -0.127975 -0.172786 -0.20585 0.0608367 0.072057 0.244435 -0.173595 0.132092 0.168632 -0.0854543 -0.00280113 -0.0276037 0.052607 -0.117902 -0.169175 -0.00403542 -0.0109434 0.244847 -0.13107 -0.0982448 -0.113567 0.0414409 -0.0616073 -0.165999 0.102769 0.139748 -0.14105 0.155912 0.168391 -0.259375 -0.0867288 -0.173368 -0.121882 -0.0486837 0.183366 0.0761916 0.112742 -0.139196 0.0612472 -0.275749 -0.01539 0.231158 -0.205791 -0.0657539 0.0850908 -0.0867608 0.169879 0.157519 -0.156176 -0.0707399 -0.0678009 0.0986622 -0.0408304 0.0391502 0.135862 0.107014 0.0125967 -0.0183921 0.0271086 -0.0710402 0.0337554 -0.0605819
7366280 -0.0630563 -0.0715009 0.107722 -0.000621362 -3.03082e-05 0.0515916 0.0436353 0.0504736 -0.0951916 0.0349152 0.0587024 0.00940796 0.0126136 0.100698 -0.0718319 -0.0814951 -0.0358691 0.0224495 -0.025749 -0.0238603 0.0457544 -0.00398526 0.011613 0.0874867 -0.0172528 0.0211138 -0.0530008 0.0216206 0.0862854 0.0996982 -0.0604224 0.00844516 0.0109655 -0.0149961 0.0883976 -0.0305455 0.0278981 0.0546674 0.0417853 -0.0681849 0.077627 -0.0311521 0.0610265 -0.0389368 0.0243897 -0.000333431 0.00300423 -0.0660649 -0.073064 -0.00958591 0.0313597 -0.0020948 0.00267187 0.00936938 -0.00787956 0.0185144 -0.0437133 -0.0440212 0.0423745 0.0209121 -0.0538428 0.0350475 -0.0751491 0.0478058 0.0293521 -0.00426489 -0.0386947 -0.0630428 -0.0704743 0.0179538 0.0236462 0.0819865 -0.0644296 0.0431582 0.0576898 -0.030502 -0.000913681 -0.00919181 0.0213239 -0.0434557 -0.0575477 -0.00333962 -0.00606912 0.087274 -0.0399395 -0.0292026 -0.0463941 0.0181955 -0.0231557 -0.0568168 0.0392303 0.0555609 -0.0505124 0.0525212 0.0646906 -0.0940763 -0.030941 -0.0629776 -0.0484057 -0.0192949 0.0656582 0.0237617 0.0402505 -0.0528126 0.0231134 -0.0966108 -0.00699695 0.0837019 -0.0730321 -0.0279082 0.0264099 -0.0337696 0.0667649 0.0626338 -0.0542717 -0.0185186 -0.0237367 0.0375435 -0.0147482 0.0136819 0.0465382 0.0439911 0.00252158 -0.00724562 0.0121008 -0.0264897 0.0107534 -0.0150995
7533059 -0.0374324 -0.0430366 0.067806 0.00472495 0.00244312 0.0367399 0.0322143 0.0293339 -0.0563629 0.0242684 0.0342057 0.0069905 0.00508035 0.0652516 -0.0396381 -0.0534547 -0.0206376 0.0163143 -0.0141654 -0.0134503 0.0230266 -0.00450679 0.00799262 0.0557285 -0.0125809 0.0189467 -0.0341339 0.0128116 0.0513535 0.0611885 -0.0381893 0.00635672 0.00536851 -0.00963775 0.0534755 -0.0204356 0.0182517 0.0339055 0.0302949 -0.0356319 0.0471899 -0.0211216 0.038059 -0.0249663 0.0123701 0.000378642 0.00610109 -0.0427725 -0.0480682 -0.0051746 0.0203769 -0.000352001 0.00294993 0.00885632 -0.00866056 0.0128157 -0.0231927 -0.0310361 0.0249215 0.0129434 -0.0291557 0.022708 -0.0454917 0.0300691 0.0199764 -0.00441572 -0.027386 -0.0362362 -0.0415243 0.00973378 0.0175286 0.0508254 -0.0365108 0.0274973 0.0393276 -0.0193304 -0.00212333 -0.010217 0.00819694 -0.028945 -0.0331099 -0.00228333 -0.000258875 0.0545052 -0.0286857 -0.0202785 -0.0238071 0.0151992 -0.0151762 -0.0398692 0.025794 0.0353234 -0.0317204 0.034135 0.0369107 -0.0532379 -0.0160877 -0.0361002 -0.0304937 -0.00683297 0.0434312 0.0134152 0.0245138 -0.0302758 0.0160624 -0.0588828 -0.00411364 0.0512172 -0.0462105 -0.0201164 0.0171055 -0.0191145 0.0424162 0.0368663 -0.0272069 -0.0132637 -0.014573 0.0190798 -0.0134085 0.00368015 0.0324135 0.0245485 0.00270654 -0.00501572 0.00434531 -0.0188305 0.00667644 -0.0097495
12449815 -0.20273 -0.209422 0.330086 0.00782067 -0.00197057 0.16606 0.141225 0.157134 -0.288541 0.111702 0.19212 0.0362153 0.0387344 0.324181 -0.209965 -0.25283 -0.111455 0.0805961 -0.0926658 -0.068943 0.133511 -0.00589139 0.0319728 0.259876 -0.0481365 0.0771919 -0.154661 0.0715867 0.27322 0.324799 -0.192735 0.0267983 0.0496703 -0.045109 0.263486 -0.102357 0.0934046 0.175646 0.128378 -0.208815 0.246559 -0.0779102 0.203929 -0.131946 0.0607018 -0.000378503 0.00976239 -0.20435 -0.224146 -0.040508 0.0946099 -0.00372513 0.00157045 0.0451718 -0.0284529 0.0677393 -0.137042 -0.14586 0.119423 0.05782 -0.162819 0.118447 -0.225824 0.160507 0.0861033 -0.00412223 -0.136682 -0.195571 -0.232816 0.0629875 0.0755773 0.26605 -0.195692 0.138392 0.187098 -0.0880424 -0.00853744 -0.0334831 0.056476 -0.131378 -0.182011 -0.00858459 -0.0124911 0.273598 -0.13931 -0.099036 -0.127739 0.0511353 -0.0749235 -0.185074 0.115379 0.162569 -0.15461 0.16949 0.191632 -0.291315 -0.096344 -0.189666 -0.138788 -0.0536079 0.20758 0.0853635 0.130031 -0.158625 0.0688535 -0.305265 -0.0187301 0.253615 -0.232906 -0.0803836 0.0845645 -0.0965121 0.193528 0.185343 -0.160791 -0.0705426 -0.0805273 0.106049 -0.0537064 0.0442235 0.156361 0.123637 0.0164459 -0.0268474 0.0294909 -0.0861167 0.037559 -0.0605767
9803609 -0.158105 -0.159754 0.253171 0.00156236 0.00253365 0.131091 0.109416 0.123059 -0.215127 0.08422 0.153196 0.0231516 0.0401163 0.247899 -0.153561 -0.192399 -0.0801909 0.0626437 -0.0642194 -0.0479152 0.0952401 0.00177815 0.0171617 0.200936 -0.0365022 0.0554104 -0.119553 0.0554549 0.204352 0.244682 -0.149851 0.0210821 0.0369936 -0.0372512 0.196593 -0.081782 0.0729927 0.128737 0.0968191 -0.166103 0.183736 -0.0567484 0.154457 -0.103219 0.0380263 -0.00321251 -0.0013615 -0.158892 -0.175524 -0.025398 0.0702592 0.00074625 0.00511179 0.038901 -0.0188034 0.0494949 -0.105833 -0.105932 0.0884104 0.0385611 -0.124828 0.0866432 -0.167569 0.126149 0.0633194 -0.00840093 -0.104761 -0.149702 -0.171868 0.0486052 0.058479 0.206277 -0.151537 0.109445 0.142528 -0.0714016 -0.000397962 -0.0247413 0.03935 -0.0965143 -0.143858 -0.00506911 -0.0131956 0.204957 -0.111012 -0.0763128 -0.097232 0.0402845 -0.0508487 -0.135915 0.0843841 0.122812 -0.121984 0.131631 0.144867 -0.221485 -0.0753375 -0.146051 -0.102686 -0.0362137 0.158102 0.065913 0.100004 -0.11384 0.0488182 -0.231648 -0.0128663 0.193519 -0.178136 -0.0538652 0.0705944 -0.0742302 0.14172 0.136171 -0.129933 -0.0592302 -0.063244 0.0850555 -0.0357527 0.0334503 0.111581 0.0918466 0.0054941 -0.0166909 0.0236697 -0.0621429 0.0264374 -0.0497747
8898566 -0.176724 -0.208438 0.32261 0.00978983 -0.00568341 0.157101 0.140086 0.15081 -0.275103 0.108122 0.166348 0.0331836 0.0333882 0.306016 -0.208796 -0.241395 -0.111514 0.0715228 -0.0858621 -0.0740646 0.127738 -0.00795917 0.033001 0.259654 -0.0454689 0.0752831 -0.147584 0.0815446 0.255383 0.30725 -0.185862 0.0157004 0.0438146 -0.0492436 0.260212 -0.103428 0.0920501 0.169554 0.133672 -0.185497 0.230866 -0.0906415 0.177704 -0.122233 0.0695752 0.0042991 0.0171577 -0.185652 -0.218021 -0.0385419 0.1021 0.00805875 -0.00637153 0.0283219 -0.0333887 0.0525873 -0.127288 -0.138898 0.115333 0.0593146 -0.148913 0.116747 -0.21889 0.139362 0.0857045 -0.00425749 -0.122023 -0.18801 -0.222292 0.061747 0.076604 0.236941 -0.194168 0.118508 0.163743 -0.0819551 -0.0175592 -0.0324705 0.0525239 -0.125354 -0.177125 -0.0026669 -0.00590218 0.262958 -0.122861 -0.083997 -0.130321 0.0661368 -0.0746218 -0.181422 0.116417 0.165303 -0.129667 0.146166 0.196157 -0.270712 -0.0868996 -0.167568 -0.139462 -0.0523154 0.205964 0.080644 0.13455 -0.151651 0.0677345 -0.291555 -0.0320791 0.23912 -0.223268 -0.082734 0.0753147 -0.0902908 0.197842 0.189364 -0.143989 -0.0541793 -0.081826 0.103685 -0.0563425 0.0308424 0.147929 0.122298 0.0196707 -0.0254284 0.0299603 -0.0820768 0.0520804 -0.0497365
11171303 -0.179676 -0.222524 0.350829 0.0195868 -0.00613348 0.160978 0.161384 0.152034 -0.306907 0.118733 0.170655 0.0376005 0.0250875 0.336241 -0.237114 -0.268894 -0.133093 0.0705207 -0.0981735 -0.0878627 0.144599 -0.0149473 0.0476625 0.280094 -0.0530303 0.0805046 -0.166078 0.0900784 0.278192 0.327841 -0.197084 0.0128726 0.042529 -0.0557362 0.290536 -0.110435 0.0975446 0.178849 0.161257 -0.185132 0.258137 -0.116222 0.182306 -0.123759 0.0880544 0.0186049 0.0353442 -0.19673 -0.235481 -0.0443948 0.110031 0.017631 -0.00840226 0.0176312 -0.0369907 0.0485901 -0.128476 -0.153349 0.1308 0.0718716 -0.15204 0.141778 -0.239384 0.138444 0.0999724 -0.00610655 -0.131004 -0.206008 -0.242579 0.0647877 0.0773641 0.238461 -0.226172 0.116205 0.165965 -0.0828025 -0.0201792 -0.0375052 0.0655797 -0.131276 -0.188946 -0.00874266 -0.00993399 0.283635 -0.113273 -0.0893865 -0.145845 0.0709297 -0.0914043 -0.211071 0.130341 0.186919 -0.130397 0.148323 0.212159 -0.280638 -0.0966222 -0.172244 -0.150104 -0.0598125 0.218908 0.0847991 0.144083 -0.171668 0.0783125 -0.314049 -0.044459 0.246106 -0.248333 -0.097407 0.0725269 -0.0935702 0.228523 0.208789 -0.131443 -0.0511179 -0.0918105 0.122365 -0.0677092 0.0201233 0.169806 0.141112 0.0297792 -0.0269641 0.0269194 -0.0938212 0.0689991 -0.0360131
11500190 -0.0955881 -0.0952443 0.157255 0.00157316 0.00245413 0.0798401 0.0693306 0.0727052 -0.136864 0.0554001 0.0937738 0.0136115 0.0197635 0.153487 -0.0960029 -0.113937 -0.0468473 0.0379025 -0.0396658 -0.0288548 0.0606245 -0.000194352 0.0122635 0.123363 -0.0205522 0.0361117 -0.0697263 0.0305746 0.126846 0.150123 -0.087431 0.0117561 0.0251008 -0.0189049 0.1201 -0.0522185 0.0389917 0.0818272 0.0561154 -0.0978102 0.116552 -0.0339226 0.095723 -0.0677689 0.0205378 0.00188205 0.00177127 -0.100994 -0.108567 -0.0182834 0.0388481 0.000411472 -0.00101358 0.0279036 -0.0108653 0.0351311 -0.0624159 -0.0659228 0.0574645 0.0248657 -0.0800961 0.0546904 -0.102292 0.0747734 0.0411479 -0.00334542 -0.0679774 -0.0917436 -0.106539 0.034384 0.038195 0.12471 -0.0883611 0.0699621 0.0901893 -0.0417218 -0.00443592 -0.0156753 0.0280889 -0.0576924 -0.0891814 -0.00420942 -0.00436509 0.13019 -0.0683387 -0.049721 -0.0592052 0.0194923 -0.0342762 -0.0843123 0.0499201 0.0709896 -0.0708952 0.0806443 0.0898892 -0.139488 -0.0425587 -0.0876722 -0.0603698 -0.0249966 0.0950996 0.0389309 0.0595279 -0.0721064 0.0322259 -0.14022 -0.00751961 0.117338 -0.104526 -0.0341466 0.0391332 -0.0435563 0.0850356 0.079212 -0.0812837 -0.0389065 -0.0356859 0.0491939 -0.0243421 0.0238602 0.0731597 0.0579755 0.00622703 -0.00899384 0.0114405 -0.0420282 0.0173319 -0.0309435
4595316 -0.202541 -0.212474 0.338349 0.00708527 -0.00956104 0.16594 0.152953 0.157024 -0.295902 0.11533 0.195337 0.0323008 0.0521721 0.331518 -0.218262 -0.253627 -0.115912 0.077573 -0.0929624 -0.0692899 0.130623 -0.00489545 0.0291049 0.272116 -0.0407931 0.0754053 -0.158142 0.0777245 0.274223 0.325044 -0.197754 0.0175714 0.0425956 -0.0484884 0.26614 -0.102072 0.0997814 0.173345 0.128037 -0.21617 0.241192 -0.0878686 0.208232 -0.141763 0.0548853 -0.00377782 0.00744363 -0.200317 -0.228546 -0.0395438 0.0955201 0.00369578 0.00123622 0.0388061 -0.0226234 0.0693059 -0.13445 -0.147058 0.125917 0.0505603 -0.157055 0.122168 -0.219869 0.167335 0.0917345 -0.010428 -0.144865 -0.203427 -0.233795 0.0729748 0.0842978 0.274463 -0.200744 0.143337 0.181052 -0.0883361 -0.00769879 -0.0245168 0.0551038 -0.131781 -0.185755 -0.00183254 -0.017054 0.278831 -0.135679 -0.0999028 -0.128763 0.0584709 -0.0791811 -0.18698 0.114887 0.169006 -0.158573 0.168654 0.202965 -0.294343 -0.099839 -0.195143 -0.139497 -0.0524056 0.216042 0.0875971 0.131081 -0.1588 0.0640746 -0.306372 -0.0261012 0.252611 -0.236656 -0.0822231 0.0943469 -0.104442 0.201972 0.193922 -0.161553 -0.0677618 -0.0819783 0.110721 -0.0479544 0.037807 0.159164 0.123048 0.0080429 -0.0189024 0.0326293 -0.0811163 0.046245 -0.0575997
8163422 -0.0195034 -0.016424 0.0269631 -0.00212658 -0.00178011 0.0111336 0.00916322 0.016284 -0.0237581 0.0114591 0.0200248 0.00538664 0.00469338 0.0287354 -0.0174423 -0.0193065 -0.00944968 0.00421715 -0.00512076 -0.00155951 0.00997804 -0.00324935 -0.00161065 0.0217544 -0.00354782 0.00201031 -0.0132856 0.00898592 0.0265097 0.0250044 -0.0170748 -0.00120749 0.000796994 -0.00720438 0.0208777 -0.0049322 0.00657631 0.0149751 0.0093244 -0.0228141 0.0233803 -0.0086794 0.0198867 -0.0150369 0.00405319 -0.00366445 -0.00181058 -0.0152937 -0.0208657 -0.00673656 0.00411783 -0.000803532 -0.00181716 0.00857819 -0.00204179 0.00831041 -0.009278 -0.0115723 0.0140775 0.000230295 -0.0169749 0.00728018 -0.0212039 0.0179152 0.00556689 -0.00247653 -0.0137895 -0.0145999 -0.0213331 0.00666954 0.00368254 0.0253207 -0.0186607 0.0107771 0.0179553 -0.00625914 -0.00129667 -0.00398856 0.00478238 -0.00789479 -0.0119552 0.00202136 0.00253043 0.0253672 -0.0134189 -0.0101401 -0.0104181 0.00703442 -0.00286272 -0.0140437 0.00976817 0.0133129 -0.0125771 0.0146279 0.016137 -0.026615 -0.00884754 -0.0201726 -0.0140894 -0.00255139 0.0178666 0.00345669 0.00792895 -0.0104408 0.00684119 -0.0253503 -0.00196326 0.0253501 -0.0182693 -0.00515854 0.00479215 -0.0123014 0.0142102 0.017833 -0.018167 -0.00454365 -0.00973115 0.0110466 -0.00761659 0.000848406 0.0129162 0.0128015 -0.00122393 -0.00313999 0.00299162 -0.00787207 0.000384576 -0.00811096
6285650 -0.0274668 -0.0266161 0.0427426 -0.00103584 -0.000316097 0.0237965 0.0186801 0.0204731 -0.037217 0.0148224 0.0233051 0.00645294 0.00881247 0.0436024 -0.022824 -0.0304343 -0.0114924 0.0124701 -0.00766719 -0.00662073 0.016838 -0.000772124 0.000580515 0.0354575 -0.00801789 0.00613058 -0.0167347 0.00804774 0.0338902 0.0427087 -0.0246027 0.0069503 0.00244732 -0.00590893 0.0302456 -0.012969 0.0146924 0.0221605 0.0173537 -0.0272665 0.0315702 -0.00664645 0.0274861 -0.0139923 0.00587012 -0.00030985 -0.00176914 -0.0263415 -0.0277034 -0.00424872 0.0100838 0.00267693 0.00335963 0.00664497 -0.00476628 0.00995466 -0.0215242 -0.0149134 0.0130958 0.00714955 -0.022512 0.0106407 -0.0283116 0.0236427 0.0132273 -0.00224876 -0.0179903 -0.025868 -0.0274413 0.00805846 0.0114939 0.0317675 -0.0252624 0.0178887 0.027012 -0.010851 -0.000162496 -0.0034587 0.00401426 -0.0127292 -0.024505 0.0025598 0.00143993 0.0367702 -0.0199197 -0.0145489 -0.012568 0.00575103 -0.00980357 -0.0194057 0.0167732 0.0188386 -0.0196778 0.0244208 0.026969 -0.0364001 -0.0125856 -0.0213687 -0.0209105 -0.00334438 0.0248448 0.00818437 0.0190133 -0.0156932 0.0121122 -0.0345645 -0.0044852 0.0328255 -0.0302942 -0.00915619 0.0111143 -0.0148685 0.0213252 0.0242764 -0.0217399 -0.0079285 -0.00929196 0.0157693 -0.00716363 0.00738864 0.019225 0.0164344 0.00178288 -0.00299739 0.00342934 -0.00960817 0.00183697 -0.0063193
2702976 -0.0499885 -0.0424087 0.0654 -0.000152623 -0.00265207 0.0342911 0.0300197 0.0344932 -0.0622556 0.0272469 0.0444292 0.00752341 0.0124753 0.0649787 -0.0422814 -0.0516888 -0.0179009 0.0159385 -0.0214007 -0.00874156 0.0262086 0.0014956 0.00471828 0.0516715 -0.00975618 0.0132951 -0.0302728 0.0130572 0.0535776 0.0718849 -0.0443094 0.00261499 0.009701 -0.00888618 0.0512864 -0.0205466 0.0164758 0.0355107 0.0218861 -0.0506081 0.0520096 -0.0125838 0.0470649 -0.0293133 0.00238791 0.000921923 -0.00530154 -0.0430432 -0.0492473 -0.00341182 0.0197212 -0.00410712 0.000613217 0.0145084 -0.00520303 0.0127112 -0.0321063 -0.031589 0.0232416 0.009133 -0.0363116 0.0208883 -0.0409174 0.0415351 0.0158383 -0.00350835 -0.0287162 -0.0430991 -0.0487663 0.0178165 0.0154627 0.0610065 -0.0402222 0.0357799 0.0391815 -0.0225992 0.000118358 -0.00065088 0.008053 -0.026591 -0.0385486 -0.00424765 -0.00326279 0.0606565 -0.031003 -0.0221138 -0.022522 0.00584281 -0.0173267 -0.0360755 0.0241102 0.0291529 -0.0400835 0.0388173 0.0357151 -0.0658914 -0.0184839 -0.0464988 -0.0242867 -0.0100755 0.0432289 0.0154968 0.0241535 -0.0296689 0.0129949 -0.0680071 0.00177348 0.0574344 -0.0459355 -0.0159812 0.0199218 -0.023366 0.0324306 0.0309657 -0.0427377 -0.0195023 -0.0179346 0.0230169 -0.0112358 0.0111937 0.0340517 0.0201581 0.00228075 -0.00680689 0.00316894 -0.0182445 0.00340003 -0.0187844
9787157 -0.0183745 -0.0174191 0.0325821 0.00147689 0.00335717 0.0126015 0.0127206 0.0139641 -0.0286702 0.00844625 0.0147011 0.00436475 -0.00153577 0.032011 -0.0215624 -0.0258132 -0.00803596 0.00894256 -0.00966731 -0.00857956 0.00891158 -0.000940159 0.00150522 0.0210642 -0.00262601 0.00779648 -0.0174823 0.00510393 0.0264375 0.030453 -0.0189547 0.000899631 0.000880722 -0.0065924 0.0274381 -0.00719483 0.0120142 0.0153409 0.0119875 -0.0179298 0.0261755 -0.012347 0.0156991 -0.0121772 0.00740892 0.00408452 0.00450096 -0.016754 -0.0229639 -0.00352735 0.00845288 -0.00126368 -0.000221371 0.000468102 0.000380592 0.00261452 -0.0105659 -0.0168017 0.0134898 0.00909855 -0.0140524 0.00938584 -0.0227366 0.0104959 0.00529771 0.00170989 -0.0116142 -0.0172038 -0.0195011 0.0053997 0.00598871 0.0187841 -0.0170423 0.0138257 0.0123305 -0.00524123 -0.00146719 -0.000760272 0.00146847 -0.0105343 -0.0153838 0.00131002 -0.00322368 0.0232715 -0.0119324 -0.00641682 -0.0107862 0.0071242 -0.00422626 -0.0143836 0.0102383 0.0186281 -0.0114887 0.012923 0.0174527 -0.0221814 -0.0110412 -0.0122412 -0.0109414 -0.00658376 0.0161818 0.00705125 0.0126056 -0.0183829 0.00867144 -0.0297747 -0.000678892 0.0200318 -0.0186894 -0.0111469 0.0045264 -0.0114061 0.0216038 0.0141246 -0.0152876 -0.00865727 -0.00836337 0.0096637 -0.00399453 0.00199215 0.015212 0.0113445 -0.00138157 -0.00284144 0.000500725 -0.00647037 0.00381484 -0.00105351
10327049 -0.0223957 -0.0271581 0.0442826 -0.000912173 0.00369911 0.0231303 0.0153872 0.0179739 -0.0361068 0.0135639 0.019599 0.00716569 0.00363735 0.0418767 -0.0264681 -0.0306814 -0.0104828 0.00677986 -0.0116431 -0.00821955 0.0191833 -0.000879166 0.00773271 0.0301429 -0.00605109 0.010585 -0.0184609 0.0102424 0.0312539 0.0366734 -0.0259594 0.00210767 0.00802765 -0.00627779 0.0337336 -0.0114859 0.0147026 0.020008 0.0163896 -0.0203979 0.0330838 -0.0148808 0.0247525 -0.0124827 0.0060632 0.000895778 -0.00166769 -0.0242894 -0.0276539 -0.00553146 0.0096814 -0.00343525 -0.00405568 0.00454408 -0.00277468 0.00935393 -0.0143389 -0.020182 0.0135282 0.0111221 -0.0191899 0.0129786 -0.0263458 0.0194148 0.0110245 -0.00134882 -0.0179812 -0.0208781 -0.0319488 0.00400553 0.0129104 0.0320673 -0.0252053 0.0145861 0.0232297 -0.0108902 -0.00324325 -0.00313112 0.00857815 -0.0125242 -0.023799 0.0023723 0.000416482 0.0337849 -0.0173057 -0.00901816 -0.0192726 0.00877576 -0.00877128 -0.0215028 0.0155827 0.0168265 -0.0140809 0.0199204 0.022522 -0.0384854 -0.0119783 -0.0189575 -0.0197616 -0.0100423 0.0242077 0.0117024 0.0201992 -0.0184649 0.0101942 -0.0375006 -0.00618827 0.0297328 -0.029561 -0.00838863 0.010672 -0.0112993 0.0221443 0.0221276 -0.0153218 -0.00887133 -0.0112579 0.0129495 -0.00380378 0.00473187 0.0166416 0.0149464 0.00459744 -0.00182332 0.00378556 -0.00824868 0.00178893 -0.00820776
1592440 -0.145353 -0.14538 0.234457 0.00342485 0.000618591 0.117583 0.102829 0.113149 -0.204929 0.0763252 0.139785 0.0201607 0.0324433 0.228586 -0.145342 -0.177373 -0.0788687 0.0592603 -0.06377 -0.0458524 0.0943508 -0.00200323 0.0175787 0.188926 -0.0308823 0.0481007 -0.109552 0.0491387 0.190893 0.221629 -0.133561 0.0162603 0.0361731 -0.0324559 0.180801 -0.0749563 0.0641975 0.125393 0.0875877 -0.144624 0.166871 -0.0561389 0.147297 -0.0950559 0.0397494 -0.00190942 0.000667559 -0.145187 -0.158624 -0.0280918 0.0665327 -0.00393063 0.00216967 0.030826 -0.0186338 0.0487384 -0.0998628 -0.101394 0.086315 0.0341428 -0.114299 0.0790555 -0.153584 0.112722 0.0585702 -0.00489272 -0.0992736 -0.135469 -0.159815 0.047691 0.0539861 0.185163 -0.137496 0.0984449 0.132834 -0.0599047 -0.00635914 -0.0202745 0.0390453 -0.0895198 -0.131635 -0.00653856 -0.00991934 0.194768 -0.101665 -0.074467 -0.0878578 0.0358029 -0.0542317 -0.131582 0.0767542 0.113596 -0.105422 0.119224 0.1311 -0.206027 -0.0672269 -0.136426 -0.0983715 -0.038098 0.142984 0.0566926 0.0924853 -0.111804 0.0475227 -0.214717 -0.0111626 0.182123 -0.16244 -0.0567604 0.057897 -0.0736703 0.134192 0.128651 -0.115864 -0.0545491 -0.0544182 0.0748916 -0.0363564 0.0314941 0.102891 0.0893907 0.0109288 -0.0191825 0.0188626 -0.0565401 0.0233051 -0.044608
1067513 0.0100689 -0.0169538 0.026141 0.00921748 0.00156624 0.00326611 0.0199388 0.00192179 -0.0262804 0.00326939 -0.0114831 -9.32188e-05 -0.0155669 0.0208888 -0.0293266 -0.0288905 -0.0186985 -0.00610784 -0.0126494 -0.023471 0.0168093 -0.00470804 0.0178691 0.0260972 -0.0061926 0.0119674 -0.0093011 0.0225169 0.0261629 0.0185025 -0.00992844 -0.00487438 -0.00491942 -0.00820121 0.0296565 -0.0150027 0.00750126 0.0133433 0.0235556 0.0120055 0.0207504 -0.0311443 -0.00398588 0.00598945 0.0321251 0.00874275 0.020122 -0.00231945 -0.0182924 -0.00426813 0.0200477 0.00983845 -0.00781058 -0.0218361 -0.0131145 -0.00859471 0.0012536 -0.0116994 0.00747978 0.0186412 -0.00331989 0.0205081 -0.0230151 -0.0155853 0.00981283 0.00735377 0.00437119 -0.0120622 -0.0147813 0.000145542 0.00513136 -0.00682379 -0.0288577 -0.00898268 -0.00353187 0.00305952 -0.0138396 -0.00978248 0.0105983 -0.00381216 -0.00897795 -0.00392691 0.00270016 0.0169292 0.0134274 0.00144037 -0.0245837 0.015877 -0.0163718 -0.0237896 0.0181283 0.0247664 0.00691968 -0.0050368 0.0247038 -0.00590655 -0.00167022 0.00198082 -0.0120763 -0.00787671 0.0182807 0.00433179 0.0190257 -0.0167668 0.00750964 -0.0191827 -0.02051 0.00739427 -0.0189159 -0.0143381 -0.0165019 -0.000223028 0.0289419 0.0280639 0.0142766 0.00901257 -0.0105681 0.0142852 -0.0170619 -0.00978183 0.0159038 0.0223255 0.00781248 -0.0031051 0.00533501 -0.014899 0.0170267 0.011168
0 0.125278 -0.552339 0.801004 0.157228 -0.0363046 0.242732 0.47211 0.214927 -0.724953 0.215722 -0.125255 0.0105075 -0.396879 0.612479 -0.744965 -0.720896 -0.55216 -0.060259 -0.30668 -0.524746 0.510217 -0.102417 0.387139 0.729372 -0.187338 0.331859 -0.377118 0.491823 0.665556 0.569707 -0.327161 -0.0797656 -0.0416897 -0.249749 0.770947 -0.364319 0.199624 0.406904 0.669786 0.167768 0.632794 -0.755404 -0.0638 0.0732215 0.706061 0.293662 0.55209 -0.163751 -0.540269 -0.128977 0.52043 0.195123 -0.247395 -0.420129 -0.299093 -0.0927232 -0.120609 -0.324297 0.292783 0.47039 -0.108794 0.553396 -0.720316 -0.199839 0.213075 0.110383 0.0108115 -0.418248 -0.49873 -0.02737 0.0917692 -0.099738 -0.713701 -0.17106 0.07128 -0.029731 -0.335187 -0.312397 0.206727 -0.191269 -0.337081 -0.0243509 0.0642527 0.532067 0.184427 0.0553863 -0.587724 0.467707 -0.337996 -0.662393 0.421329 0.666146 0.0825708 -0.0579747 0.693636 -0.351694 -0.161325 -0.0412879 -0.427187 -0.181501 0.598351 0.195711 0.483276 -0.472189 0.281794 -0.673179 -0.426405 0.321112 -0.542672 -0.452901 -0.256926 -0.129621 0.796493 0.759803 0.200077 0.242297 -0.362086 0.326432 -0.446569 -0.27109 0.478101 0.521873 0.243775 -0.141925 0.0835893 -0.312965 0.458765 0.211283
2409201 -0.020912 -0.0262949 0.0412458 0.00290901 -0.000760244 0.0178655 0.0160795 0.0226033 -0.039348 0.0106076 0.0217172 0.000680272 -0.000634262 0.038813 -0.0299546 -0.0352215 -0.0135189 0.00499829 -0.0133797 -0.0112655 0.0161012 -0.00153996 0.00534428 0.0366002 -0.00910796 0.00688071 -0.0237382 0.011003 0.0380055 0.0366511 -0.02331 0.0055808 0.0027852 -0.00797888 0.0324666 -0.012911 0.0121115 0.0237261 0.0205479 -0.0256829 0.0329176 -0.0105292 0.0240313 -0.0172224 0.00707402 0.00456376 0.00453088 -0.0225442 -0.0291382 -0.00578434 0.0151133 0.00299157 -0.00509296 0.00532808 -0.0035661 0.00522217 -0.0140393 -0.0180308 0.0141255 0.00974291 -0.0227852 0.0183641 -0.027897 0.014987 0.0112492 0.00251607 -0.0148196 -0.0276136 -0.0312878 0.00873931 0.00605181 0.0279054 -0.0233897 0.0140285 0.0226925 -0.00934831 -0.00540863 -0.00239095 0.0077128 -0.0183916 -0.0196006 0.000780091 -0.00173962 0.0327202 -0.0168266 -0.0127162 -0.0175576 0.00504949 -0.0128521 -0.023583 0.0115211 0.0195616 -0.0179736 0.0165829 0.0245843 -0.037081 -0.00827392 -0.021576 -0.0219592 -0.00999013 0.0268178 0.0119245 0.0144423 -0.0234858 0.00861815 -0.0363242 -0.00674215 0.0297099 -0.0323606 -0.0121152 0.011922 -0.0125262 0.0281071 0.0267161 -0.0177733 -0.00559448 -0.00791188 0.0123433 -0.00705581 0.0042069 0.021548 0.0133067 0.0011785 -0.00304552 0.00379586 -0.00976507 0.00778499 -0.00492454
3618600 -0.0430808 -0.0444541 0.0755961 0.00361266 -0.00156274 0.0397624 0.0284564 0.0340675 -0.0633048 0.0287568 0.0428378 0.00618966 0.0131324 0.0698994 -0.0490945 -0.0535683 -0.0196216 0.0161835 -0.0219308 -0.0133717 0.0249448 0.000477859 0.00841294 0.0593724 -0.00804867 0.0147513 -0.0331069 0.0125977 0.0612184 0.0708074 -0.0426054 0.00503359 0.00906847 -0.0113113 0.057819 -0.0219163 0.0215546 0.0416605 0.0239523 -0.0455939 0.0526583 -0.0172072 0.0445081 -0.0279243 0.00767495 0.00111789 -0.00363888 -0.0475167 -0.0489223 -0.0055862 0.0189906 -0.000163806 0.0013215 0.00741433 -0.00636062 0.0164426 -0.027743 -0.0353612 0.0258976 0.0142639 -0.0336258 0.0268216 -0.0465184 0.0401398 0.0178462 -0.000986019 -0.032329 -0.0414449 -0.0476793 0.0144814 0.020649 0.0605616 -0.0452905 0.0338158 0.0411536 -0.0190284 -0.00111774 -0.00609615 0.0154689 -0.0280112 -0.0445977 0.000753692 0.000110189 0.0618235 -0.0310628 -0.0213843 -0.0267375 0.00956212 -0.0184069 -0.0386015 0.0224859 0.0375832 -0.0326074 0.0404688 0.0386792 -0.0608127 -0.0209598 -0.0407624 -0.0302427 -0.0119135 0.0451535 0.0178458 0.0285826 -0.0316428 0.013762 -0.0666725 -0.00552245 0.0593389 -0.0511547 -0.0202249 0.020106 -0.0196195 0.0404546 0.0378366 -0.0346029 -0.0185198 -0.017549 0.0218041 -0.013258 0.0118224 0.0365396 0.026334 -0.000209348 -0.00190736 0.00583756 -0.0158728 0.00790406 -0.01404
1490440 -0.154693 -0.160949 0.253271 0.00193153 -0.00410533 0.128853 0.109677 0.122425 -0.221614 0.0889535 0.148991 0.0237755 0.0347775 0.244734 -0.15865 -0.191368 -0.0795948 0.0617045 -0.0692125 -0.052013 0.102191 -0.00525867 0.0232706 0.199212 -0.0339378 0.0558631 -0.123383 0.0563939 0.2089 0.248147 -0.147188 0.0169446 0.0397057 -0.0373589 0.199875 -0.0810652 0.0675113 0.13168 0.0941744 -0.163652 0.188806 -0.059733 0.161362 -0.105129 0.0423475 -0.0020178 0.00358461 -0.160623 -0.176667 -0.0268478 0.0706824 -0.00542466 0.000817749 0.0409287 -0.0161383 0.0483097 -0.10688 -0.112217 0.0904428 0.0424017 -0.124534 0.0861583 -0.170292 0.12848 0.0621936 -0.00903495 -0.10536 -0.147319 -0.178412 0.0540982 0.0608531 0.208124 -0.150722 0.10659 0.140939 -0.0690472 -0.000808118 -0.0220576 0.0423744 -0.0982345 -0.142427 -0.00654552 -0.00664853 0.208785 -0.106239 -0.0824454 -0.0986334 0.0410834 -0.0581599 -0.140242 0.0887418 0.121489 -0.121194 0.134388 0.148026 -0.225287 -0.0735139 -0.145887 -0.107405 -0.0389148 0.160058 0.0640726 0.099882 -0.116713 0.0501137 -0.237516 -0.0157779 0.197602 -0.179991 -0.0581404 0.0655739 -0.0788537 0.142717 0.134808 -0.128912 -0.0581969 -0.0584357 0.0825481 -0.0417598 0.0357088 0.113841 0.0949185 0.0106621 -0.0157181 0.0209347 -0.0649741 0.0299614 -0.0494863
4650526 -0.0765212 -0.0721276 0.111395 -0.000445538 -0.000866485 0.0614776 0.0451352 0.0513878 -0.0943219 0.0419675 0.0693877 0.0138057 0.0208196 0.107878 -0.0648136 -0.0831052 -0.0327382 0.0286181 -0.0251192 -0.020466 0.0413301 -0.000630855 0.00702675 0.0865818 -0.0157674 0.0205914 -0.0493037 0.0191804 0.0880674 0.110246 -0.066701 0.00926858 0.0174142 -0.0122493 0.0829091 -0.0335781 0.0341799 0.0606444 0.0388802 -0.0753971 0.082876 -0.019973 0.0767847 -0.0455153 0.0122542 -0.00577899 -0.00188198 -0.0732515 -0.0752691 -0.0126883 0.0237311 -0.00166001 0.00231259 0.0176741 -0.00385976 0.0229177 -0.044384 -0.0482881 0.0365285 0.0101108 -0.0576418 0.0368673 -0.0702437 0.0598948 0.0257428 -0.00170722 -0.0494051 -0.0648435 -0.078216 0.0237056 0.0272447 0.092318 -0.0642437 0.0541887 0.0664013 -0.032306 0.000936551 -0.0100813 0.0160159 -0.0452024 -0.0653813 -0.00035831 -0.00542409 0.094477 -0.0523368 -0.0387693 -0.0419862 0.0129219 -0.0239143 -0.0561013 0.0347319 0.0462538 -0.0582493 0.0586159 0.0598834 -0.101147 -0.0341551 -0.0682388 -0.044419 -0.0144506 0.067406 0.0287031 0.0390083 -0.0529032 0.0201174 -0.1004 0.000590729 0.0845839 -0.0766964 -0.0262405 0.035251 -0.03671 0.0581555 0.0567484 -0.0618666 -0.0320143 -0.0255359 0.0355259 -0.0160697 0.0199706 0.0474348 0.0415284 0.000856521 -0.00338916 0.00763562 -0.0279624 0.00921518 -0.0271048
4317072 -0.146582 -0.151566 0.238074 0.00564142 -0.00394889 0.124715 0.100951 0.116643 -0.210153 0.083311 0.141319 0.023665 0.036801 0.230195 -0.150963 -0.182626 -0.0795986 0.0551253 -0.0623 -0.0500217 0.0919304 -0.0029136 0.0197619 0.191911 -0.0351983 0.0524562 -0.114254 0.0529157 0.19153 0.232991 -0.138972 0.0178585 0.0359299 -0.0362111 0.187805 -0.0780602 0.0678295 0.12307 0.0946844 -0.156379 0.17696 -0.0572923 0.152589 -0.100314 0.0372935 -0.00197721 -0.000574076 -0.151901 -0.167637 -0.0252417 0.0651105 -0.00485984 0.0048846 0.0358411 -0.0176782 0.0499039 -0.101883 -0.10637 0.0867377 0.0345624 -0.118618 0.0806456 -0.16317 0.116876 0.0648781 -0.00399901 -0.0966765 -0.141182 -0.169853 0.0487114 0.0531587 0.191069 -0.139419 0.105297 0.138515 -0.0687466 -0.00416094 -0.0233801 0.0438512 -0.0923536 -0.137855 -0.0044991 -0.0115358 0.199322 -0.101673 -0.0761321 -0.0886321 0.0359218 -0.0559705 -0.134652 0.0814687 0.113974 -0.111244 0.127014 0.139045 -0.208585 -0.068314 -0.139366 -0.101543 -0.0403842 0.147368 0.0567038 0.0946377 -0.112384 0.0493023 -0.22188 -0.0101883 0.186369 -0.171331 -0.0541165 0.0666709 -0.0711759 0.138323 0.131662 -0.121757 -0.0511161 -0.0575489 0.0807028 -0.0382204 0.0305952 0.112104 0.0854849 0.00880275 -0.0150654 0.0230017 -0.0568694 0.028046 -0.0455747
3536589 -0.0288316 -0.0254964 0.0481839 -0.000564165 0.000984936 0.0200769 0.019286 0.0229721 -0.0397236 0.0185404 0.0251941 0.00771777 0.0040245 0.0422034 -0.0291946 -0.0353458 -0.0135885 0.0113248 -0.0138478 -0.00585806 0.0207768 0.00140769 0.00313413 0.035188 -0.00581643 0.00608111 -0.0245263 0.00583519 0.034822 0.0470733 -0.0236479 0.0017772 0.00553202 -0.00440483 0.0330717 -0.0125536 0.0143422 0.0212153 0.0135902 -0.0338306 0.0313125 -0.0113338 0.0321093 -0.0172674 0.00662128 -0.0018653 -0.00014601 -0.0307856 -0.0322313 -0.0016911 0.010804 -0.00175693 -0.00146733 0.0110007 -5.08288e-05 0.00896159 -0.0215933 -0.0163755 0.0165679 0.00896971 -0.0230984 0.0158577 -0.0324535 0.0269249 0.0145825 0.00215686 -0.0234011 -0.0272409 -0.0291584 0.00926543 0.00874279 0.0377264 -0.0275861 0.0174193 0.0300865 -0.012802 -0.00348346 -0.00633257 0.0100375 -0.0191567 -0.0240576 -0.00424516 -0.00253207 0.0374758 -0.0247843 -0.0169192 -0.0172523 0.00718853 -0.00874573 -0.0207858 0.0117565 0.0220938 -0.0209625 0.0247688 0.0234007 -0.0371535 -0.0115245 -0.0302458 -0.0212686 -0.0102525 0.0266235 0.00828012 0.020335 -0.0206685 0.0118816 -0.0432631 0.00254184 0.0362746 -0.0317465 -0.00848446 0.0111884 -0.0123733 0.0217581 0.0210138 -0.0210128 -0.00765959 -0.0142596 0.0130683 -0.00817669 0.00891353 0.0165283 0.0174729 0.00081275 -0.00289393 0.00147155 -0.00831889 0.00297159 -0.0125078
9913079 -0.0214837 -0.0200851 0.0324671 0.000141414 -0.00217842 0.0149611 0.0118371 0.0153338 -0.0278182 0.0143012 0.0185463 0.00280421 0.00125773 0.0318332 -0.0237614 -0.0242725 -0.0149164 0.00440406 -0.0136024 -0.00718258 0.0135633 -0.00383731 0.00410021 0.0271494 -0.00772635 0.00617363 -0.0178685 0.00983621 0.0248167 0.0331652 -0.0188171 0.0051895 0.00557368 -0.00538139 0.0290961 -0.0123814 0.0131907 0.0195139 0.0143833 -0.020527 0.0277827 -0.0132669 0.0160666 -0.00956218 0.00631276 -0.00218404 0.0016434 -0.0215614 -0.020833 -0.00454197 0.00938308 -0.00274096 0.00247907 0.00621858 -0.00618219 0.00678331 -0.0170676 -0.0118963 0.0140117 0.00651072 -0.0190788 0.0138101 -0.0208042 0.0154623 0.00965573 -0.00379299 -0.0117848 -0.0166146 -0.0254001 0.00630845 0.00871859 0.0255516 -0.018568 0.0132022 0.0165563 -0.00719126 -0.00175005 -0.00436632 0.00348938 -0.0170033 -0.0219182 -0.00222508 0.00244948 0.0244503 -0.0109476 -0.0112373 -0.0147491 0.0102086 -0.00665522 -0.0205668 0.0135797 0.0160524 -0.0130837 0.0196599 0.0214715 -0.0302525 -0.00659052 -0.0160845 -0.017245 -0.00582492 0.0192056 0.00769635 0.0164186 -0.0128795 0.00479144 -0.0353556 0.000600984 0.0286321 -0.0205411 -0.0123685 0.00419415 -0.00765294 0.021003 0.0220127 -0.0150503 -0.00894971 -0.0109763 0.0155093 -0.00478013 0.000858008 0.0199642 0.0167886 -0.000374076 0.000402841 0.00624793 -0.00940597 0.00318939 -0.00440747
12044524 -0.0487497 -0.0519267 0.0781545 0.00403595 -0.00220408 0.0405231 0.0356617 0.0336939 -0.0676333 0.0256969 0.0459011 0.0109527 0.0154249 0.0782734 -0.0509705 -0.0557158 -0.0256732 0.0215372 -0.0185643 -0.0136383 0.0322632 -0.000479176 0.00383488 0.0640873 -0.0122294 0.0126637 -0.0342299 0.0160115 0.0630348 0.076771 -0.0448069 0.00538445 0.0123173 -0.00919 0.0600241 -0.0236457 0.022013 0.0390887 0.0310243 -0.0471598 0.0569526 -0.0179343 0.050915 -0.0288141 0.00781233 -0.00306826 -0.00398746 -0.0473591 -0.0547627 -0.00961193 0.0196502 -0.00191969 0.000259504 0.0145663 -0.00305605 0.0182656 -0.0320728 -0.0372053 0.0297796 0.0135176 -0.0411574 0.0256062 -0.0475947 0.0397148 0.0229048 -0.00334147 -0.0339797 -0.0472532 -0.0557245 0.0196443 0.0179394 0.0673039 -0.0411913 0.0317497 0.0419136 -0.0175554 0.00295427 -0.00676521 0.0130337 -0.0328635 -0.0428005 0.000488461 -0.0033486 0.0652459 -0.0319163 -0.0273491 -0.0283112 0.0115459 -0.0184761 -0.0401665 0.0229837 0.034269 -0.0363958 0.0371613 0.0419721 -0.0676069 -0.0243334 -0.0444915 -0.033383 -0.0148398 0.0463306 0.0183705 0.025856 -0.0357098 0.0122243 -0.06802 -0.00562695 0.0604568 -0.0522015 -0.014309 0.0212633 -0.0259382 0.0416635 0.0423404 -0.0404873 -0.0170338 -0.0170331 0.0213593 -0.009111 0.00806101 0.037947 0.026759 1.20027e-05 -0.00462939 0.00911622 -0.0154574 0.0112134 -0.0157888
5515490 -0.018622 -0.0222722 0.0291822 -0.00268754 0.00358807 0.0162134 0.0106254 0.0137462 -0.0277383 0.00942805 0.0228501 0.00505255 0.00799593 0.0295333 -0.0165357 -0.0260154 -0.0056092 0.00921439 -0.00910765 -0.00731563 0.0138202 -0.000936956 -0.00108941 0.0232215 -0.00761124 0.006851 -0.012317 0.00125339 0.0283879 0.0344627 -0.016688 0.00408301 0.00253514 -0.00182265 0.0224298 -0.0103194 0.0114818 0.0181519 0.00785234 -0.0200048 0.0196619 -0.00377578 0.022325 -0.0159995 0.000348166 0.000841208 -0.00347019 -0.0186999 -0.0216014 -0.000812471 0.00893348 0.00148232 0.00172798 0.0105134 -0.00399757 0.00949822 -0.013584 -0.0150505 0.00777258 0.00589744 -0.0171491 0.0127426 -0.0200167 0.0189315 0.0113903 0.00124368 -0.0166375 -0.0177376 -0.0243099 0.00606833 0.00962956 0.0279267 -0.0174356 0.016304 0.0224229 -0.0110945 -0.00251929 0.000666403 0.00621069 -0.0116821 -0.0211157 -0.00372695 -0.00372795 0.0243759 -0.0186275 -0.0124381 -0.00758183 0.00464371 -0.00577934 -0.0161882 0.00746343 0.0145162 -0.0135906 0.0160173 0.0161602 -0.030161 -0.0128412 -0.0234009 -0.00994109 -0.00202226 0.0216963 0.00636115 0.00843379 -0.0100559 0.00280622 -0.0315158 -0.0010681 0.0267761 -0.018569 -0.00219509 0.00860516 -0.00776516 0.015139 0.0148866 -0.0166529 -0.00693226 -0.00402136 0.0111858 -0.000992431 0.00597308 0.0162806 0.00849289 0.00220201 -0.00560605 0.00208973 -0.00730219 0.00413147 -0.00434787
9943760 -0.036918 -0.033474 0.0529211 0.000645649 -0.00264243 0.028128 0.0234628 0.0227138 -0.0482211 0.0222826 0.0302842 0.00247579 0.0105145 0.0550216 -0.0358888 -0.0427811 -0.014562 0.0160063 -0.0179243 -0.00777491 0.0214352 0.00336989 0.00503285 0.0434142 -0.00961364 0.0136767 -0.0298129 0.0120665 0.0411392 0.0535827 -0.0312138 0.00180683 0.00911581 -0.00769528 0.0413459 -0.0204337 0.0126729 0.0286425 0.0176407 -0.0320936 0.0422723 -0.0118571 0.0316647 -0.0193562 0.00958884 0.00154631 -0.00290224 -0.0343578 -0.0405979 -0.00872904 0.0182731 -0.00228892 5.61475e-05 0.00575709 -0.0043822 0.0116315 -0.0230303 -0.0258265 0.0176022 0.0081738 -0.0281485 0.02204 -0.0358312 0.0242561 0.0112788 0.00166811 -0.0207446 -0.0312327 -0.0409858 0.00986938 0.0147888 0.0406408 -0.0339547 0.0203176 0.0270687 -0.0125389 -0.00189619 -0.00708104 0.0130602 -0.0230841 -0.0305649 -0.00463584 0.000474954 0.0444467 -0.0211079 -0.0167843 -0.021671 0.0105246 -0.00840348 -0.0272949 0.0178335 0.028743 -0.0275513 0.0252633 0.0329703 -0.049959 -0.0150912 -0.0293899 -0.0232991 -0.0089747 0.0329841 0.0129078 0.0184971 -0.0235022 0.0144968 -0.0537104 -0.000824697 0.0430741 -0.0407569 -0.00961099 0.0147334 -0.0172639 0.0298717 0.0338902 -0.0259437 -0.0130397 -0.0157872 0.0160337 -0.0119275 0.010248 0.0265022 0.0216499 0.00200662 -0.00499226 0.00896978 -0.0101294 0.00557289 -0.0115736
3833932 -0.0704357 -0.0757674 0.119488 0.00621814 -0.00245209 0.0593002 0.0536522 0.0575007 -0.10979 0.0446499 0.066209 0.0133064 0.0138511 0.118155 -0.0821014 -0.0917835 -0.0387972 0.02408 -0.0345115 -0.028485 0.0475192 -0.00192915 0.0108975 0.097036 -0.0153078 0.0248821 -0.0618535 0.029223 0.0982638 0.115702 -0.0666968 0.0108885 0.0183079 -0.0154407 0.0977701 -0.0391005 0.0303006 0.063641 0.0476606 -0.0695256 0.0932119 -0.0346627 0.0752738 -0.0433936 0.0270996 0.00434697 0.00913385 -0.077113 -0.0854959 -0.0155304 0.0373972 0.000729412 -0.000169012 0.0123117 -0.0130891 0.0202066 -0.0516639 -0.0505886 0.0476624 0.0204807 -0.0576742 0.044364 -0.083916 0.0534666 0.0354736 -0.000558061 -0.0484151 -0.0712138 -0.0852063 0.0257184 0.0258753 0.094816 -0.0770195 0.0469342 0.0632383 -0.0310913 -0.00187134 -0.012734 0.0183271 -0.0489871 -0.0721164 -0.00255159 -0.00562595 0.0998383 -0.0502341 -0.0363113 -0.0495608 0.0241506 -0.0243515 -0.0714284 0.0427633 0.0638412 -0.050756 0.0617509 0.0725065 -0.107819 -0.0338562 -0.0659272 -0.0505409 -0.0176867 0.0811234 0.0309094 0.0531269 -0.0600208 0.0297217 -0.114274 -0.00934725 0.0936604 -0.0878451 -0.031113 0.0290075 -0.0337098 0.0701664 0.0717199 -0.0535046 -0.0228086 -0.033261 0.0409302 -0.0235439 0.0140045 0.0586766 0.0483697 0.00670068 -0.01318 0.0117539 -0.0312616 0.0199287 -0.021054
8974244 -0.0341084 -0.0287006 0.049822 0.00448624 -0.0020038 0.0254643 0.0203314 0.0243201 -0.0432557 0.0207483 0.0311778 0.0059848 0.00527534 0.0493373 -0.030646 -0.0389962 -0.0131657 0.0142538 -0.0101023 -0.00862075 0.022389 -0.00164368 0.000744067 0.0429212 -0.00361817 0.0120642 -0.0258735 0.00781323 0.0448963 0.0508202 -0.0308863 0.00297305 0.00484422 -0.00567058 0.0411054 -0.014262 0.0108887 0.028593 0.0231331 -0.032374 0.0396033 -0.0149592 0.0305946 -0.0193824 0.011092 0.00107283 0.00292801 -0.0334732 -0.034644 -0.0059905 0.0167812 0.00316302 -0.000297545 0.0040276 -1.77358e-05 0.0125986 -0.0194475 -0.0243559 0.0187933 0.0063201 -0.0223537 0.0193953 -0.0319175 0.0263352 0.0150137 0.00123654 -0.0210553 -0.0311462 -0.0352467 0.0121433 0.0105076 0.0422681 -0.0331797 0.0197198 0.029682 -0.0110038 -0.00465814 -0.00403094 0.00739158 -0.0213356 -0.0324889 -0.00444144 -0.000754372 0.0440622 -0.0220683 -0.0137378 -0.0212844 0.00626603 -0.0134308 -0.0257744 0.0211013 0.021765 -0.020814 0.025873 0.0324096 -0.0431556 -0.0149308 -0.0279967 -0.0223025 -0.00833942 0.0303646 0.0156851 0.0178845 -0.0262206 0.0101924 -0.0439301 0.000724385 0.0353626 -0.0364015 -0.0145258 0.0148724 -0.0125233 0.0268814 0.0284018 -0.0247472 -0.00944007 -0.00959067 0.0159856 -0.00620922 0.00417557 0.0261003 0.0163828 0.000375077 -0.00101912 0.00152353 -0.0145925 0.00445182 -0.0106981
8974442 -0.124813 -0.120726 0.189374 0.00397061 -0.000953871 0.0962137 0.0796189 0.092182 -0.162952 0.0689931 0.12032 0.0182994 0.0300606 0.18608 -0.117402 -0.138063 -0.0575501 0.0473304 -0.0474542 -0.03531 0.0692181 -0.00392005 0.00838407 0.149085 -0.0240162 0.0363162 -0.0923576 0.0369614 0.150614 0.186065 -0.112275 0.018949 0.0275127 -0.023549 0.144045 -0.0572192 0.0551585 0.0954388 0.0638893 -0.129812 0.134802 -0.0361422 0.125646 -0.0842998 0.0232597 -0.00146357 -0.00849101 -0.124058 -0.129393 -0.0231456 0.0445221 -0.00564243 0.00379098 0.0350945 -0.00758972 0.0422558 -0.080131 -0.0852643 0.0712366 0.0256641 -0.0980773 0.0612505 -0.125801 0.098752 0.0532039 -0.0087754 -0.0811909 -0.113275 -0.128566 0.0411843 0.0455778 0.159441 -0.11202 0.0898685 0.109902 -0.0556361 0.000102349 -0.0156246 0.0285866 -0.0763322 -0.10427 -0.00245757 -0.0061363 0.15807 -0.0863785 -0.0589312 -0.0703557 0.0219927 -0.0425532 -0.103363 0.058809 0.0883632 -0.0944887 0.104062 0.101365 -0.16922 -0.0553453 -0.116782 -0.0742478 -0.0269421 0.117644 0.0508252 0.0753891 -0.0846072 0.0354274 -0.175785 -0.0027999 0.146521 -0.130378 -0.038335 0.0564685 -0.0590958 0.100944 0.100761 -0.102198 -0.0510311 -0.0412209 0.0575678 -0.0258659 0.0299039 0.0835267 0.0663925 0.00719394 -0.0125358 0.0158754 -0.0474402 0.0129102 -0.0413271
807689 -0.157226 -0.160209 0.25605 0.00227312 -0.00128664 0.132707 0.109686 0.123004 -0.222034 0.0911558 0.148581 0.0224208 0.0368638 0.25019 -0.164184 -0.192436 -0.0847926 0.0603362 -0.0675008 -0.0537531 0.101924 -0.00289142 0.0193785 0.204435 -0.0385008 0.0592792 -0.119103 0.0547531 0.207324 0.243273 -0.14929 0.0201669 0.0330912 -0.0337524 0.202595 -0.0809891 0.0698531 0.13304 0.0968646 -0.15987 0.188144 -0.0627042 0.156231 -0.0993515 0.041524 0.00249548 0.00276715 -0.159683 -0.173419 -0.0266538 0.0755434 -0.00424014 0.00344941 0.0332958 -0.0170379 0.0461529 -0.10758 -0.11321 0.0921274 0.0393947 -0.127392 0.0860429 -0.175405 0.122582 0.0632141 -0.00197409 -0.106942 -0.146382 -0.1789 0.0522476 0.0593426 0.199214 -0.152899 0.107751 0.14498 -0.0721539 -0.00752659 -0.0212686 0.0447039 -0.101435 -0.140755 -0.00484395 -0.00593939 0.211636 -0.109296 -0.0791029 -0.0993525 0.0389047 -0.0542431 -0.144652 0.0870828 0.125256 -0.119331 0.126633 0.14445 -0.222079 -0.0761391 -0.145175 -0.104695 -0.0409806 0.163884 0.0629619 0.10477 -0.119765 0.0565981 -0.235481 -0.0146698 0.197789 -0.176846 -0.0636189 0.0693555 -0.0790434 0.144867 0.143664 -0.124053 -0.0512001 -0.0648953 0.0834651 -0.0408789 0.0344717 0.120036 0.0969223 0.011711 -0.0220076 0.0183597 -0.0618834 0.026892 -0.046334
11030924 -0.0393431 -0.0364918 0.0588398 -8.01007e-05 0.000242189 0.0356102 0.0265209 0.029242 -0.0524867 0.0179912 0.036563 0.00836941 0.00730199 0.0633142 -0.0368012 -0.0495558 -0.0147385 0.0125457 -0.0140552 -0.00933742 0.0240459 0.00127201 0.00261735 0.0475164 -0.00443339 0.0141915 -0.0283995 0.0102055 0.049567 0.0621076 -0.033559 0.00774316 0.00844556 -0.00954819 0.0473945 -0.0177646 0.0148078 0.030997 0.0215011 -0.0392379 0.0467273 -0.00898773 0.0397311 -0.0292344 0.00964225 -0.00409487 -0.00394644 -0.0364425 -0.0459935 -0.00559492 0.0163917 0.000180441 0.00339202 0.0137435 -0.00156133 0.0100853 -0.0284485 -0.0267863 0.0216426 0.0100232 -0.0341757 0.0187967 -0.0423358 0.0366162 0.0146999 -0.00580512 -0.027201 -0.0374763 -0.0412565 0.0141066 0.0139552 0.0554238 -0.033213 0.0257146 0.0389276 -0.0145534 -0.00123786 -0.00392904 0.00711475 -0.0268453 -0.0346897 -0.000167193 -0.0038763 0.0519794 -0.0266448 -0.0203073 -0.024102 0.0084582 -0.0162416 -0.0365515 0.0177274 0.0291961 -0.0315346 0.0314086 0.0356614 -0.0557893 -0.0150477 -0.0349268 -0.0266749 -0.00664523 0.0351796 0.0123033 0.0249573 -0.0243426 0.0121594 -0.053817 -0.00455097 0.0526557 -0.0402992 -0.0156504 0.0180267 -0.0193989 0.0298776 0.0352486 -0.0313852 -0.0199607 -0.0168682 0.0207831 -0.0088332 0.00717793 0.0246312 0.0226465 0.00242443 -0.00411538 0.00443158 -0.016681 0.0059635 -0.0131499
11215889 -0.0399602 -0.0336356 0.0529983 0.00415122 0.00124084 0.028479 0.0259624 0.0245568 -0.0482629 0.0197874 0.0375443 0.00468024 0.0136766 0.0590038 -0.0346329 -0.0382037 -0.018255 0.0179193 -0.0168507 -0.00841805 0.0202243 -0.00102951 0.00115565 0.0433129 -0.00803398 0.0118911 -0.0236266 0.00986267 0.0479846 0.0525773 -0.0356192 0.00174737 0.00688369 -0.00902978 0.0411939 -0.0187631 0.0178484 0.0264172 0.0186138 -0.0404644 0.0422199 -0.00923185 0.037949 -0.026474 0.00638062 -0.00151217 -0.00154019 -0.0336785 -0.0415733 -0.00446153 0.0129808 0.00153465 0.00459939 0.00851944 -0.000653349 0.00932142 -0.0248552 -0.0282513 0.0219352 0.00515635 -0.0299191 0.0192384 -0.040373 0.0316082 0.0156117 -0.00491148 -0.0225721 -0.0363767 -0.0389756 0.0102626 0.0154961 0.0499697 -0.032105 0.0238719 0.0313819 -0.0150422 -0.000427597 -0.0075291 0.012924 -0.0222248 -0.0345689 -0.000474626 -0.00250898 0.0464201 -0.0258564 -0.0224706 -0.0167308 0.00718269 -0.0138874 -0.0309647 0.018892 0.0242286 -0.0304285 0.0291242 0.0299294 -0.0502667 -0.0182768 -0.0372552 -0.0197264 -0.00711058 0.0365876 0.0113257 0.0215866 -0.0266351 0.0114926 -0.0512946 0.00139355 0.0457164 -0.0414283 -0.0121979 0.0145039 -0.0156299 0.0288725 0.026208 -0.0330011 -0.0178553 -0.0106636 0.0163928 -0.00884489 0.00818474 0.0256566 0.0221995 0.000297809 -0.00281704 0.00216013 -0.0140406 0.00228745 -0.0104551
6517706 -0.0318255 -0.0332922 0.053338 -0.00151298 0.00189532 0.0270875 0.0249465 0.0258497 -0.0483672 0.01888 0.0307959 0.00398231 0.00729325 0.0554588 -0.0383715 -0.0386512 -0.0170186 0.0108773 -0.0185628 -0.0150012 0.0194929 0.000366851 0.00220286 0.0444683 -0.0104114 0.0137963 -0.0218736 0.0140984 0.0447835 0.0527675 -0.0317597 0.00214415 0.00575897 -0.00990803 0.042993 -0.0161257 0.0130787 0.0312033 0.0252105 -0.0324855 0.0392336 -0.0159269 0.0303718 -0.0224587 0.0102427 -0.00254725 0.0048741 -0.0298633 -0.0382535 -0.00763123 0.0180564 0.00286232 0.00286749 0.00215946 -0.00594822 0.0112117 -0.0215906 -0.0272816 0.0230784 0.0128547 -0.0269466 0.0211418 -0.0398985 0.0225174 0.0135501 -0.00156342 -0.0187693 -0.034996 -0.0373486 0.0128609 0.0127103 0.0446636 -0.0364726 0.0240473 0.0308723 -0.0112349 0.00167684 -0.00563298 0.0123576 -0.0196396 -0.0272278 0.000650112 0.000999028 0.0467886 -0.0187834 -0.0190387 -0.0189355 0.0116366 -0.016365 -0.0345598 0.0154042 0.0287878 -0.0267814 0.0283962 0.0295215 -0.0436213 -0.0132664 -0.0330503 -0.0236762 -0.00837561 0.0337877 0.0117347 0.0232611 -0.0242223 0.0125261 -0.0471555 -0.0048904 0.0410287 -0.0412858 -0.0136249 0.0102482 -0.0186962 0.0313211 0.0310908 -0.0255851 -0.0128492 -0.0160004 0.0147898 -0.0131092 0.00929281 0.0231328 0.0232455 0.000447069 -0.00527859 0.0035567 -0.0139183 0.0099528 -0.0122728
11199056 -0.0256856 -0.0265073 0.0440326 -0.000918995 0.000794344 0.0224565 0.0181653 0.0238264 -0.0392951 0.0188562 0.0301141 0.0036964 0.0043665 0.0395117 -0.022805 -0.033595 -0.0141294 0.0120128 -0.0124609 -0.00631609 0.0195512 0.00326547 0.0022957 0.0357161 -0.00494284 0.007543 -0.0210344 0.0114235 0.0324933 0.0442535 -0.0281157 0.00625591 0.00351551 -0.00221654 0.0365087 -0.0116466 0.00898415 0.0233174 0.0122494 -0.0291965 0.0285554 -0.0112178 0.027232 -0.0186931 0.00700999 -0.00385337 0.00146848 -0.0298751 -0.027253 -0.00697684 0.0100595 -0.00171583 -0.00168789 0.0107592 -0.000219652 0.00775921 -0.0160149 -0.0187619 0.0171567 0.00481843 -0.0258732 0.0161696 -0.0265366 0.0269645 0.0143799 -0.000578919 -0.0223994 -0.0241217 -0.0298761 0.00841697 0.012332 0.0364846 -0.0287792 0.017832 0.028105 -0.0138379 -0.00166951 0.000582283 0.00711641 -0.0190011 -0.028033 0.00219605 -0.00309743 0.0392734 -0.0213298 -0.0114512 -0.0167487 0.00747366 -0.00935157 -0.021031 0.0167023 0.0182033 -0.0212944 0.024933 0.0232332 -0.04139 -0.0144429 -0.0298992 -0.0145725 -0.00935616 0.0289293 0.0089645 0.0183151 -0.0217264 0.0105004 -0.0419661 -0.00427648 0.0378428 -0.0343276 -0.0104485 0.0131248 -0.00990118 0.0203914 0.0231234 -0.0254038 -0.0138576 -0.0111277 0.0103069 -0.00730985 0.00915683 0.0174063 0.0165881 -0.000291237 -0.000130419 0.00221622 -0.0123109 0.00201326 -0.0124747
